{"learner":{"attributes":{"scikit_learn":"{\"_estimator_type\": \"classifier\"}"},"feature_names":["n_rooms","n_baths","max_guests","deposit_usd","cleaning_fee_usd","extra_people_fee_usd","min_stay","n_photos","lat","lon","rating","adr_usd","n_bookings_ltm","n_reviews_ltm","reservation_days_ltm","available_days_ltm","anual_revenue_usd","blocked_days_ltm","occupancy_rate_ltm","distance_to_closest_beach","Población residente (A)","Población no residente que se localiza durante el día en esta área (D)","Población total que se localiza durante el día en el área (E=B+D)","Saldo población entra y sale de esta área (F=D-C)","Porcentaje de población no residente que se localiza durante el día en esta área (D*100/A)","Cociente entre población total que se localiza durante el día y población residente (E*100/A)","Porcentaje de población que gana o pierde durante el día (F*100/A)","is_instantbookable_0","is_instantbookable_1","is_superhost_0","is_superhost_1","property_type_hotel","property_type_multi_family","property_type_room","property_type_single_family","property_subtype_detached_house","property_subtype_flat","property_subtype_flat_house_room","property_subtype_hospitality_room","property_subtype_loft","property_subtype_special_house","property_subtype_studio","property_use_hotel_hospitality","property_use_residential","property_use_unknown","kitchen_0","kitchen_1","washer_0","washer_1","tv_0","tv_1","essentials_0","essentials_1","wireless_internet_0","wireless_internet_1","hangers_0","hangers_1","iron_0","iron_1","heating_0","heating_1","ac_0","ac_1","pool_0","pool_1","hair-dryer_0","hair-dryer_1","free_parking_0","free_parking_1","hot_water_0","hot_water_1","elevator_0","elevator_1","laptop-friendly_0","laptop-friendly_1","policy_category_Flexible","policy_category_Strict","policy_category_Unknown","Month_1","Month_2","Month_3","Month_4","Month_5","Month_6","Month_7","Month_8","Month_9","Month_10","Month_11","Month_12","Provincia_Alicante/Alacant","Provincia_Castellón/Castelló","Provincia_Valencia/València","coastal_municipality_0","coastal_municipality_1"],"feature_types":["float","float","float","float","float","float","float","float","float","float","float","float","float","float","float","float","float","float","float","float","int","int","int","int","float","float","float","int","int","int","int","int","int","int","int","int","int","int","int","int","int","int","int","int","int","int","int","int","int","int","int","int","int","int","int","int","int","int","int","int","int","int","int","int","int","int","int","int","int","int","int","int","int","int","int","int","int","int","int","int","int","int","int","int","int","int","int","int","int","int","int","int","int","int","int"],"gradient_booster":{"model":{"gbtree_model_param":{"num_parallel_tree":"1","num_trees":"100"},"iteration_indptr":[0,1,2,3,4,5,6,7,8,9,10,11,12,13,14,15,16,17,18,19,20,21,22,23,24,25,26,27,28,29,30,31,32,33,34,35,36,37,38,39,40,41,42,43,44,45,46,47,48,49,50,51,52,53,54,55,56,57,58,59,60,61,62,63,64,65,66,67,68,69,70,71,72,73,74,75,76,77,78,79,80,81,82,83,84,85,86,87,88,89,90,91,92,93,94,95,96,97,98,99,100],"tree_info":[0,0,0,0,0,0,0,0,0,0,0,0,0,0,0,0,0,0,0,0,0,0,0,0,0,0,0,0,0,0,0,0,0,0,0,0,0,0,0,0,0,0,0,0,0,0,0,0,0,0,0,0,0,0,0,0,0,0,0,0,0,0,0,0,0,0,0,0,0,0,0,0,0,0,0,0,0,0,0,0,0,0,0,0,0,0,0,0,0,0,0,0,0,0,0,0,0,0,0,0],"trees":[{"base_weights":[-1.9947478E-1,-1.2804298E0,1.6490448E0,-1.2810102E0,-6.337744E-2,1.3619463E0,3.2718575E0,-1.1850616E0,-1.2850343E0,2.1656227E0,-1.011001E0,1.1626276E0,2.4105496E0,2.9381008E0,3.6982265E0,-1.224137E0,8.9982815E-2,-1.285748E0,-1.1982491E0,-3.399746E-1,1.0774043E0,-3.7731585E-1,-3.7631953E-1,1.0046053E0,2.6430538E0,2.1156178E0,3.3624167E0,3.052343E0,1.3064195E0,3.8517938E0,3.3078735E0,-1.250937E0,-1.0282036E0,2.508786E0,-8.6177535E-2,-3.8638568E-1,-1.2691356E0,-3.8616133E-1,-9.619325E-1,7.7659243E-1,-8.9412445E-1,5.946111E-1,1.2176206E0,1.6358005E0,2.9266255E0,2.2075837E0,9.947635E-1,3.534328E0,2.344833E0,2.9028318E0,3.541333E0,8.8808954E-1,1.7112939E0,3.9585052E0,3.2927165E0,3.451164E0,2.9392474E0,-3.7882793E-1,-3.5543042E-1,-3.1533855E-1,2.1697628E-1,8.7789994E-1,-2.2483112E-1,-2.203951E-1,1.0539984E-1,-3.8341615E-1,-3.552322E-1,-6.497499E-2,-3.2939255E-1,9.05459E-2,-3.567987E-1,1.3775037E-1,3.7528488E-1,3.3086324E-1,5.30828E-1,4.2971638E-1,9.2136866E-1,7.0776844E-1,9.8434436E-1,6.112041E-1,7.9117626E-1,2.0825535E-1,4.6827567E-1,9.88319E-1,1.2030897E0,6.476875E-1,1.1123672E0,9.1622823E-1,7.032415E-1,8.4851116E-1,1.1207885E0,4.002994E-1,1.4169979E-1,4.2780763E-1,6.5693337E-1,1.116276E0,1.2272326E0,8.1893855E-1,1.1513966E0,8.263175E-1,1.0574399E0,6.8688047E-1,9.7289115E-1],"categories":[],"categories_nodes":[],"categories_segments":[],"categories_sizes":[],"default_left":[0,0,0,0,0,0,0,0,0,0,0,0,0,0,0,0,0,0,0,0,0,0,0,0,0,0,0,0,0,0,0,0,0,0,0,0,0,0,0,0,0,0,0,0,0,0,0,0,0,0,0,0,0,0,0,0,0,0,0,0,0,0,0,0,0,0,0,0,0,0,0,0,0,0,0,0,0,0,0,0,0,0,0,0,0,0,0,0,0,0,0,0,0,0,0,0,0,0,0,0,0,0,0],"id":0,"left_children":[1,3,5,7,9,11,13,15,17,19,21,23,25,27,29,31,33,35,37,-1,-1,-1,39,41,43,45,47,49,51,53,55,57,59,61,63,-1,65,-1,67,-1,69,71,73,75,77,79,81,83,85,87,89,91,93,95,97,99,101,-1,-1,-1,-1,-1,-1,-1,-1,-1,-1,-1,-1,-1,-1,-1,-1,-1,-1,-1,-1,-1,-1,-1,-1,-1,-1,-1,-1,-1,-1,-1,-1,-1,-1,-1,-1,-1,-1,-1,-1,-1,-1,-1,-1,-1,-1],"loss_changes":[5.4239456E5,1.20875E2,4.6661562E4,6.45625E1,1.7682008E2,1.7785125E4,2.1316094E3,3.441006E2,8.65625E0,1.2156344E2,8.717426E0,1.6727734E4,3.8087734E3,1.5711172E3,3.833047E2,3.3890625E1,8.809035E1,4.3125E0,2.7240112E1,0E0,0E0,0E0,2.9728893E1,5.6428555E3,1.9651367E3,1.0677617E3,5.538828E2,5.670078E2,9.2422424E1,2.6948438E2,8.875781E1,3.1113281E0,3.335022E1,2.128479E1,5.507072E1,0E0,1.3013672E1,0E0,3.7730774E1,0E0,5.988244E0,1.9637163E3,2.6905352E3,4.3865063E2,1.0745586E3,6.962344E2,1.331676E2,3.0051562E2,1.1041821E2,5.0435547E2,2.4536914E2,5.036624E1,3.520288E1,1.0958203E2,2.243125E2,5.917285E1,9.7316895E1,0E0,0E0,0E0,0E0,0E0,0E0,0E0,0E0,0E0,0E0,0E0,0E0,0E0,0E0,0E0,0E0,0E0,0E0,0E0,0E0,0E0,0E0,0E0,0E0,0E0,0E0,0E0,0E0,0E0,0E0,0E0,0E0,0E0,0E0,0E0,0E0,0E0,0E0,0E0,0E0,0E0,0E0,0E0,0E0,0E0,0E0],"parents":[2147483647,0,0,1,1,2,2,3,3,4,4,5,5,6,6,7,7,8,8,9,9,10,10,11,11,12,12,13,13,14,14,15,15,16,16,17,17,18,18,22,22,23,23,24,24,25,25,26,26,27,27,28,28,29,29,30,30,31,31,32,32,33,33,34,34,36,36,38,38,40,40,41,41,42,42,43,43,44,44,45,45,46,46,47,47,48,48,49,49,50,50,51,51,52,52,53,53,54,54,55,55,56,56],"right_children":[2,4,6,8,10,12,14,16,18,20,22,24,26,28,30,32,34,36,38,-1,-1,-1,40,42,44,46,48,50,52,54,56,58,60,62,64,-1,66,-1,68,-1,70,72,74,76,78,80,82,84,86,88,90,92,94,96,98,100,102,-1,-1,-1,-1,-1,-1,-1,-1,-1,-1,-1,-1,-1,-1,-1,-1,-1,-1,-1,-1,-1,-1,-1,-1,-1,-1,-1,-1,-1,-1,-1,-1,-1,-1,-1,-1,-1,-1,-1,-1,-1,-1,-1,-1,-1,-1],"split_conditions":[1.385E1,1.86E2,1E0,2E0,1.1E1,1E0,5E0,4.1E1,6.1E1,3.9469463E1,1E0,6.7E1,1.6E1,1E0,1E0,1E1,8.2E1,1E0,1E0,-3.399746E-1,1.0774043E0,-3.7731585E-1,8.2E1,1E0,2.02925E5,1E0,1E0,1.14E-1,1E1,1E0,3.9301785E1,4E0,1.38E2,2E0,1E0,-3.8638568E-1,1.8E1,-3.8616133E-1,3.837987E1,7.7659243E-1,2E0,1E0,1E0,1E0,1E2,1.67E-1,8.05335E5,5.4E1,7.5E1,3.896485E1,1E0,4.3424917E3,1.569E1,1.3E1,2.3E1,8E0,2E0,-3.7882793E-1,-3.5543042E-1,-3.1533855E-1,2.1697628E-1,8.7789994E-1,-2.2483112E-1,-2.203951E-1,1.0539984E-1,-3.8341615E-1,-3.552322E-1,-6.497499E-2,-3.2939255E-1,9.05459E-2,-3.567987E-1,1.3775037E-1,3.7528488E-1,3.3086324E-1,5.30828E-1,4.2971638E-1,9.2136866E-1,7.0776844E-1,9.8434436E-1,6.112041E-1,7.9117626E-1,2.0825535E-1,4.6827567E-1,9.88319E-1,1.2030897E0,6.476875E-1,1.1123672E0,9.1622823E-1,7.032415E-1,8.4851116E-1,1.1207885E0,4.002994E-1,1.4169979E-1,4.2780763E-1,6.5693337E-1,1.116276E0,1.2272326E0,8.1893855E-1,1.1513966E0,8.263175E-1,1.0574399E0,6.8688047E-1,9.7289115E-1],"split_indices":[11,13,85,2,7,84,13,13,13,8,37,13,13,33,55,13,10,37,33,0,0,0,10,67,22,33,45,18,7,33,8,13,14,6,59,0,13,0,8,0,2,86,86,86,13,18,20,13,13,8,65,19,24,13,13,7,6,0,0,0,0,0,0,0,0,0,0,0,0,0,0,0,0,0,0,0,0,0,0,0,0,0,0,0,0,0,0,0,0,0,0,0,0,0,0,0,0,0,0,0,0,0,0],"split_type":[0,0,0,0,0,0,0,0,0,0,0,0,0,0,0,0,0,0,0,0,0,0,0,0,0,0,0,0,0,0,0,0,0,0,0,0,0,0,0,0,0,0,0,0,0,0,0,0,0,0,0,0,0,0,0,0,0,0,0,0,0,0,0,0,0,0,0,0,0,0,0,0,0,0,0,0,0,0,0,0,0,0,0,0,0,0,0,0,0,0,0,0,0,0,0,0,0,0,0,0,0,0,0],"sum_hessian":[2.7144406E5,1.7128336E5,1.0016072E5,1.7120167E5,8.167505E1,8.510609E4,1.5054623E4,6.9032793E3,1.642984E5,2.3981184E1,5.7693863E1,7.151467E4,1.3591424E4,8.44885E3,6.605774E3,6.6980493E3,2.0523029E2,1.6294467E5,1.3537205E3,7.2986217E0,1.6682564E1,4.0837524E1,1.685634E1,6.4618867E4,6.895807E3,1.0378813E4,3.2126099E3,7.895197E3,5.536526E2,4.7343726E3,1.8714012E3,5.887381E3,8.1066833E2,1.3033253E1,1.9219704E2,1.4378927E5,1.9155406E4,9.8027435E2,3.7344614E2,1.9115437E0,1.4944797E1,2.209536E4,4.2523508E4,1.5163755E3,5.3794316E3,9.59091E3,7.8790356E2,2.746193E3,4.6641666E2,6.0517734E3,1.8434232E3,2.7387207E2,2.797805E2,3.97045E3,7.6392236E2,1.3415562E3,5.2984515E2,4.9795713E3,9.078095E2,8.0058923E2,1.0079049E1,1.1643039E1,1.3902136E0,7.715685E1,1.1504018E2,1.732432E4,1.8310851E3,5.804142E1,3.1540472E2,2.9542038E0,1.1990592E1,1.8317107E4,3.778253E3,3.520577E4,7.317737E3,1.3299131E3,1.864624E2,2.071592E3,3.3078396E3,6.8733896E3,2.71752E3,5.161168E2,2.7178677E2,1.8310851E3,9.151081E2,4.1271967E2,5.3697002E1,4.758875E3,1.2928987E3,3.9864374E2,1.4447795E3,1.3102763E2,1.4284445E2,1.7777356E2,1.0200692E2,1.4303561E3,2.540094E3,3.7883322E2,3.8508917E2,1.3189651E2,1.2096597E3,1.7151761E2,3.5832755E2],"tree_param":{"num_deleted":"0","num_feature":"95","num_nodes":"103","size_leaf_vector":"1"}},{"base_weights":[-2.0607819E-1,-1.1864682E0,8.6772674E-1,-1.1870751E0,-1.2628686E-1,7.446E-1,1.4651449E0,-1.0761027E0,-1.1918241E0,1.0986811E0,-8.9687186E-1,6.469437E-1,1.2588202E0,1.3107926E0,1.5974591E0,-1.1256154E0,-4.5272123E-2,-3.5863402E-1,-1.1672175E0,1.6920153E0,-3.3755884E-1,-3.4859273E-1,-3.004866E-1,5.422785E-1,1.0978497E0,1.3437191E0,4.3350297E-1,1.4354249E0,1.0644994E0,1.3442856E0,1.659333E0,-1.1552246E0,-9.5222497E-1,6.427085E-1,-4.9135417E-1,-1.1794056E0,-9.6413565E-1,1.8527105E0,2.9955444E-1,4.7922924E-1,-7.764626E-1,7.242784E-1,3.3322605E-1,1.0153672E0,1.3650634E0,1.4218014E0,3.3521816E-1,9.202563E-1,3.469694E-2,1.4941369E0,6.5496516E-1,7.664412E-1,1.2018102E0,1.4600767E0,8.261631E-1,1.7998627E0,1.5718255E0,-3.5168442E-1,-3.3261025E-1,-2.8809422E-1,5.0492245E-1,3.1792107E-1,-1.2289852E-1,1.2415039E-2,-2.8487876E-1,-3.5516414E-1,-3.3192033E-1,-2.1096596E-1,-3.1972125E-1,5.9401786E-1,2.6352277E-1,6.724672E-2,-3.2670787E-1,1.3474846E-1,2.7457052E-1,1.19005464E-1,-5.3196315E-2,3.4634057E-1,2.312439E-1,4.9343324E-1,3.5617262E-1,4.5548534E-1,1.8511485E-1,2.1771817E-1,-5.0715357E-2,2.1520506E-1,4.434332E-1,-5.0368138E-2,1.4356712E-1,5.032717E-1,3.8909292E-1,-1.0068452E-1,2.892961E-1,1.2252016E-1,2.803689E-1,3.7174407E-1,1.3176908E-1,4.4868523E-1,1.0801072E-1,2.2167698E-2,3.6021173E-1,5.56759E-1,4.7550914E-1,4.4829845E-1,5.3929025E-1],"categories":[],"categories_nodes":[],"categories_segments":[],"categories_sizes":[],"default_left":[0,0,0,0,0,0,0,0,0,0,0,0,0,0,0,0,0,0,0,0,0,0,0,0,0,0,0,0,0,0,0,0,0,0,0,0,0,0,0,0,0,0,0,0,0,0,0,0,0,0,0,0,0,0,0,0,0,0,0,0,0,0,0,0,0,0,0,0,0,0,0,0,0,0,0,0,0,0,0,0,0,0,0,0,0,0,0,0,0,0,0,0,0,0,0,0,0,0,0,0,0,0,0,0,0],"id":1,"left_children":[1,3,5,7,9,11,13,15,17,19,21,23,25,27,29,31,33,-1,35,37,-1,-1,39,41,43,45,47,49,51,53,55,57,59,61,63,65,67,69,-1,-1,71,73,75,77,79,81,83,85,87,89,91,93,95,97,99,101,103,-1,-1,-1,-1,-1,-1,-1,-1,-1,-1,-1,-1,-1,-1,-1,-1,-1,-1,-1,-1,-1,-1,-1,-1,-1,-1,-1,-1,-1,-1,-1,-1,-1,-1,-1,-1,-1,-1,-1,-1,-1,-1,-1,-1,-1,-1,-1,-1],"loss_changes":[2.724535E5,8.690625E1,9.08457E3,6.9984375E1,7.511049E1,5.142008E3,4.2894922E2,2.8366943E2,1.015625E1,4.2508633E1,7.359108E0,4.0613594E3,1.144623E3,2.9766602E2,1.7571289E2,2.6129883E1,7.8821976E1,0E0,4.015039E1,9.0167236E-1,0E0,0E0,1.6012014E1,2.657621E3,3.559746E2,1.1664727E3,2.9618463E2,2.954541E2,1.3327417E2,1.3295288E2,1.0937305E2,2.291504E0,1.822931E1,4.4783833E1,3.8062016E1,3.828125E0,2.4431458E1,6.029053E-1,0E0,0E0,4.543316E0,1.9614531E3,1.0534727E3,4.2070312E2,1.8812158E2,1.0669844E3,2.10084E2,7.6720764E1,7.559537E1,2.153916E2,1.395672E2,6.2033813E1,6.3319336E1,7.086865E1,1.1564911E2,3.909961E1,9.584961E1,0E0,0E0,0E0,0E0,0E0,0E0,0E0,0E0,0E0,0E0,0E0,0E0,0E0,0E0,0E0,0E0,0E0,0E0,0E0,0E0,0E0,0E0,0E0,0E0,0E0,0E0,0E0,0E0,0E0,0E0,0E0,0E0,0E0,0E0,0E0,0E0,0E0,0E0,0E0,0E0,0E0,0E0,0E0,0E0,0E0,0E0,0E0,0E0],"parents":[2147483647,0,0,1,1,2,2,3,3,4,4,5,5,6,6,7,7,8,8,9,9,10,10,11,11,12,12,13,13,14,14,15,15,16,16,18,18,19,19,22,22,23,23,24,24,25,25,26,26,27,27,28,28,29,29,30,30,31,31,32,32,33,33,34,34,35,35,36,36,37,37,40,40,41,41,42,42,43,43,44,44,45,45,46,46,47,47,48,48,49,49,50,50,51,51,52,52,53,53,54,54,55,55,56,56],"right_children":[2,4,6,8,10,12,14,16,18,20,22,24,26,28,30,32,34,-1,36,38,-1,-1,40,42,44,46,48,50,52,54,56,58,60,62,64,66,68,70,-1,-1,72,74,76,78,80,82,84,86,88,90,92,94,96,98,100,102,104,-1,-1,-1,-1,-1,-1,-1,-1,-1,-1,-1,-1,-1,-1,-1,-1,-1,-1,-1,-1,-1,-1,-1,-1,-1,-1,-1,-1,-1,-1,-1,-1,-1,-1,-1,-1,-1,-1,-1,-1,-1,-1,-1,-1,-1,-1,-1,-1],"split_conditions":[1.385E1,1.86E2,1E0,2E0,1.1E1,4.2E1,3E0,3.6E1,1E0,1E0,1E0,1E0,1E0,1E0,2E0,8E0,-3.8737E-1,-3.5863402E-1,3.1E1,7.92E-1,-3.3755884E-1,-3.4859273E-1,8.2E1,1E0,1.1E1,1E0,6.16E1,1.2E1,1.5857059E1,1.3E1,1E0,2E0,1.06E2,1.5E0,1E0,1.8E1,-3.9097533E-1,4.53E2,2.9955444E-1,4.7922924E-1,2E0,1E0,3.9506E1,1E0,1E0,1E0,6.4E1,5.6E-1,4.92E-1,7.6E1,2E0,2E0,4.22E2,2.6499455E4,9E0,1.878E2,3.5E1,-3.5168442E-1,-3.3261025E-1,-2.8809422E-1,5.0492245E-1,3.1792107E-1,-1.2289852E-1,1.2415039E-2,-2.8487876E-1,-3.5516414E-1,-3.3192033E-1,-2.1096596E-1,-3.1972125E-1,5.9401786E-1,2.6352277E-1,6.724672E-2,-3.2670787E-1,1.3474846E-1,2.7457052E-1,1.19005464E-1,-5.3196315E-2,3.4634057E-1,2.312439E-1,4.9343324E-1,3.5617262E-1,4.5548534E-1,1.8511485E-1,2.1771817E-1,-5.0715357E-2,2.1520506E-1,4.434332E-1,-5.0368138E-2,1.4356712E-1,5.032717E-1,3.8909292E-1,-1.0068452E-1,2.892961E-1,1.2252016E-1,2.803689E-1,3.7174407E-1,1.3176908E-1,4.4868523E-1,1.0801072E-1,2.2167698E-2,3.6021173E-1,5.56759E-1,4.7550914E-1,4.4829845E-1,5.3929025E-1],"split_indices":[11,13,85,2,7,13,13,13,33,73,37,84,89,75,6,13,9,0,13,18,0,0,10,27,13,78,11,5,24,5,63,13,17,1,27,13,9,23,0,0,2,59,8,75,63,88,11,18,18,3,6,6,11,19,13,11,13,0,0,0,0,0,0,0,0,0,0,0,0,0,0,0,0,0,0,0,0,0,0,0,0,0,0,0,0,0,0,0,0,0,0,0,0,0,0,0,0,0,0,0,0,0,0,0,0],"split_type":[0,0,0,0,0,0,0,0,0,0,0,0,0,0,0,0,0,0,0,0,0,0,0,0,0,0,0,0,0,0,0,0,0,0,0,0,0,0,0,0,0,0,0,0,0,0,0,0,0,0,0,0,0,0,0,0,0,0,0,0,0,0,0,0,0,0,0,0,0,0,0,0,0,0,0,0,0,0,0,0,0,0,0,0,0,0,0,0,0,0,0,0,0,0,0,0,0,0,0,0,0,0,0,0,0],"sum_hessian":[2.5880033E5,1.3528461E5,1.2351573E5,1.3520708E5,7.752719E1,1.0241122E5,2.110451E4,5.557866E3,1.2964921E5,2.97728E1,4.7754395E1,8.606814E4,1.6343072E4,9.746063E3,1.1358445E4,5.303059E3,2.5480728E2,1.1296983E5,1.6679385E4,2.3691126E1,6.0816736E0,3.240253E1,1.5351862E1,6.985539E4,1.6212755E4,1.4818128E4,1.5249443E3,6.468146E3,3.277918E3,2.2352112E3,9.123234E3,4.524727E3,7.7833203E2,1.00054726E2,1.5475256E2,1.5730504E4,9.488807E2,1.7877165E1,5.813962E0,2.605704E0,1.2746158E1,3.7342645E4,3.2512744E4,1.2392332E4,3.8204224E3,1.3752911E4,1.0652172E3,6.861601E2,8.387842E2,6.0147563E3,4.5338934E2,1.0358973E3,2.2420205E3,1.8254401E3,4.0977103E2,3.4934585E3,5.629776E3,3.293172E3,1.2315549E3,7.765839E2,1.7481235E0,7.16533E1,2.8401432E1,7.198024E1,8.2772316E1,1.4807621E4,9.2288257E2,2.6816037E2,6.8072034E2,1.4897637E1,2.9795275E0,3.1011643E0,9.644994E0,1.5301162E4,2.2041484E4,2.8918521E4,3.594223E3,7.896892E3,4.49544E3,1.4816031E3,2.3388193E3,1.2279781E4,1.473129E3,6.0007587E2,4.6514127E2,5.048272E2,1.8133293E2,5.7634515E2,2.6243906E2,3.111942E3,2.9028147E3,1.0787618E2,3.4551315E2,3.3209018E2,7.038071E2,2.136777E3,1.05243416E2,1.7679602E3,5.7479862E1,1.3660219E2,2.7316885E2,2.7650513E3,7.2840717E2,4.1969883E3,1.432788E3],"tree_param":{"num_deleted":"0","num_feature":"95","num_nodes":"105","size_leaf_vector":"1"}},{"base_weights":[-1.8681148E-1,-1.1250359E0,5.6868607E-1,-9.8699456E-1,-1.1311219E0,4.8107657E-1,1.0203333E0,-1.0485716E0,-2.130686E-3,-1.1315693E0,-3.3745286E-1,4.0050447E-1,7.7690196E-1,9.246555E-1,1.2225568E0,-1.0852138E0,-8.443607E-1,1.440578E-1,-1.0196309E0,-3.4085596E-1,-1.1004325E0,-3.346102E-1,3.9872858E-1,3.3104667E-1,6.952517E-1,3.7876046E-1,9.55078E-1,9.6429724E-1,3.866047E-1,1.2711908E0,9.9771863E-1,-1.1065191E0,-1.0280288E0,-9.267572E-1,-5.2305686E-1,-3.2375764E-2,1.0084946E0,-1.0735925E0,4.4589385E-2,-1.1157104E0,-8.589924E-1,8.438622E-1,-3.1175396E-1,4.228884E-1,4.9046595E-2,6.337998E-1,9.516288E-1,2.7496E-1,1.0955207E0,1.0805625E0,4.8692095E-1,9.964475E-1,6.2596846E-1,-2.550456E-1,4.693362E-1,1.2030194E0,1.3909346E0,4.3271515E-1,1.042294E0,-3.3218473E-1,5.1889595E-2,-3.0924752E-1,1.8701559E-2,-2.8640363E-1,1.5777143E-2,3.495067E-2,-2.0536225E-1,8.533678E-2,-1.8899709E-1,7.6928896E-1,2.1335384E-1,-3.3806095E-1,-8.0417134E-2,-3.3643055E-1,-3.072718E-1,-1.7526823E-1,-2.9258087E-1,3.488556E-1,-2.7209607E-1,1.7670675E-1,7.80221E-2,3.277791E-2,-1.2858385E-1,1.7727475E-1,3.2940558E-1,4.2915145E-1,2.7109468E-1,2.233263E-2,1.8503991E-1,3.633018E-1,8.247202E-2,3.0193055E-1,5.044509E-1,1.8168238E-1,-8.2073696E-2,2.7992254E-1,3.5009712E-1,2.5389966E-1,6.2682745E-3,-1.0905745E-1,3.7384307E-1,1.7963532E-1,4.3949008E-2,3.1711513E-1,3.9944142E-1,4.2637438E-1,3.5108912E-1,2.7541885E-1,-2.8799403E-1,3.0248234E-1,4.492774E-1],"categories":[],"categories_nodes":[],"categories_segments":[],"categories_sizes":[],"default_left":[0,0,0,0,0,0,0,0,0,0,0,0,0,0,0,0,0,0,0,0,0,0,0,0,0,0,0,0,0,0,0,0,0,0,0,0,0,0,0,0,0,0,0,0,0,0,0,0,0,0,0,0,0,0,0,0,0,0,0,0,0,0,0,0,0,0,0,0,0,0,0,0,0,0,0,0,0,0,0,0,0,0,0,0,0,0,0,0,0,0,0,0,0,0,0,0,0,0,0,0,0,0,0,0,0,0,0,0,0,0,0],"id":2,"left_children":[1,3,5,7,9,11,13,15,17,19,21,23,25,27,29,31,33,35,37,-1,39,-1,41,43,45,47,49,51,53,55,57,59,61,63,65,67,69,71,-1,73,75,77,-1,79,81,83,85,87,89,91,93,95,97,99,101,103,105,107,109,-1,-1,-1,-1,-1,-1,-1,-1,-1,-1,-1,-1,-1,-1,-1,-1,-1,-1,-1,-1,-1,-1,-1,-1,-1,-1,-1,-1,-1,-1,-1,-1,-1,-1,-1,-1,-1,-1,-1,-1,-1,-1,-1,-1,-1,-1,-1,-1,-1,-1,-1,-1],"loss_changes":[1.665657E5,8.6953125E1,5.1501484E3,2.6889795E2,3.5257812E1,2.5983066E3,4.0802734E2,3.0309082E1,3.910622E1,1.31875E1,3.364566E1,1.7540234E3,1.6551309E3,3.058994E2,7.296484E1,3.1694336E0,1.6442322E1,3.5094475E1,2.2416458E0,0E0,4.695215E1,0E0,2.0413292E1,1.7960625E3,2.5684326E2,5.366079E2,9.4653906E2,1.448418E2,5.251494E1,4.38584E1,3.0072144E1,2.6938477E0,3.0323486E0,1.3930023E1,1.3794582E1,3.6512497E1,1.6215744E1,1.057991E0,0E0,5.245117E0,2.4264038E1,1.438015E1,0E0,1.4148262E3,4.900824E2,2.6181836E2,7.125513E1,4.3212787E2,8.614856E1,5.646084E2,3.0791553E2,1.3088379E2,1.550823E2,1.891578E1,3.6464233E1,6.537451E1,1.1827393E1,6.194129E1,1.5878174E1,0E0,0E0,0E0,0E0,0E0,0E0,0E0,0E0,0E0,0E0,0E0,0E0,0E0,0E0,0E0,0E0,0E0,0E0,0E0,0E0,0E0,0E0,0E0,0E0,0E0,0E0,0E0,0E0,0E0,0E0,0E0,0E0,0E0,0E0,0E0,0E0,0E0,0E0,0E0,0E0,0E0,0E0,0E0,0E0,0E0,0E0,0E0,0E0,0E0,0E0,0E0,0E0],"parents":[2147483647,0,0,1,1,2,2,3,3,4,4,5,5,6,6,7,7,8,8,9,9,10,10,11,11,12,12,13,13,14,14,15,15,16,16,17,17,18,18,20,20,22,22,23,23,24,24,25,25,26,26,27,27,28,28,29,29,30,30,31,31,32,32,33,33,34,34,35,35,36,36,37,37,39,39,40,40,41,41,43,43,44,44,45,45,46,46,47,47,48,48,49,49,50,50,51,51,52,52,53,53,54,54,55,55,56,56,57,57,58,58],"right_children":[2,4,6,8,10,12,14,16,18,20,22,24,26,28,30,32,34,36,38,-1,40,-1,42,44,46,48,50,52,54,56,58,60,62,64,66,68,70,72,-1,74,76,78,-1,80,82,84,86,88,90,92,94,96,98,100,102,104,106,108,110,-1,-1,-1,-1,-1,-1,-1,-1,-1,-1,-1,-1,-1,-1,-1,-1,-1,-1,-1,-1,-1,-1,-1,-1,-1,-1,-1,-1,-1,-1,-1,-1,-1,-1,-1,-1,-1,-1,-1,-1,-1,-1,-1,-1,-1,-1,-1,-1,-1,-1,-1,-1],"split_conditions":[1.385E1,2E0,1E0,3.6E1,1.86E2,2.9E1,9E0,8E0,-3.4404844E-1,1E0,1E0,1E0,6.6751E4,1E0,1E0,2E0,3.948402E1,8.2E1,2.9E1,-3.4085596E-1,3.1E1,-3.346102E-1,2E0,6.3454814E3,1.5E1,1E0,9.8E1,1.2E1,1.214E1,3.6E1,1.214E1,5.9E1,6.33E2,8.21E-1,9.2E1,1E0,4.5E1,7.06E-1,4.4589385E-2,1.8E1,-3.9097533E-1,5.3724756E3,-3.1175396E-1,7.6E1,2.6499455E4,1E0,1E0,4.44E-1,1E0,1E0,2.3967E5,1.14E-1,1.8525E2,2E-1,1E0,3E0,1.4967E2,1E0,7.5E1,-3.3218473E-1,5.1889595E-2,-3.0924752E-1,1.8701559E-2,-2.8640363E-1,1.5777143E-2,3.495067E-2,-2.0536225E-1,8.533678E-2,-1.8899709E-1,7.6928896E-1,2.1335384E-1,-3.3806095E-1,-8.0417134E-2,-3.3643055E-1,-3.072718E-1,-1.7526823E-1,-2.9258087E-1,3.488556E-1,-2.7209607E-1,1.7670675E-1,7.80221E-2,3.277791E-2,-1.2858385E-1,1.7727475E-1,3.2940558E-1,4.2915145E-1,2.7109468E-1,2.233263E-2,1.8503991E-1,3.633018E-1,8.247202E-2,3.0193055E-1,5.044509E-1,1.8168238E-1,-8.2073696E-2,2.7992254E-1,3.5009712E-1,2.5389966E-1,6.2682745E-3,-1.0905745E-1,3.7384307E-1,1.7963532E-1,4.3949008E-2,3.1711513E-1,3.9944142E-1,4.2637438E-1,3.5108912E-1,2.7541885E-1,-2.8799403E-1,3.0248234E-1,4.492774E-1],"split_indices":[11,2,85,13,13,13,13,13,9,33,33,84,22,33,45,13,8,14,17,0,13,0,6,19,17,84,11,5,24,13,24,7,3,18,10,69,13,18,0,13,9,19,0,3,19,77,6,18,33,86,21,18,11,18,55,6,11,33,13,0,0,0,0,0,0,0,0,0,0,0,0,0,0,0,0,0,0,0,0,0,0,0,0,0,0,0,0,0,0,0,0,0,0,0,0,0,0,0,0,0,0,0,0,0,0,0,0,0,0,0,0],"split_type":[0,0,0,0,0,0,0,0,0,0,0,0,0,0,0,0,0,0,0,0,0,0,0,0,0,0,0,0,0,0,0,0,0,0,0,0,0,0,0,0,0,0,0,0,0,0,0,0,0,0,0,0,0,0,0,0,0,0,0,0,0,0,0,0,0,0,0,0,0,0,0,0,0,0,0,0,0,0,0,0,0,0,0,0,0,0,0,0,0,0,0,0,0,0,0,0,0,0,0,0,0,0,0,0,0,0,0,0,0,0,0],"sum_hessian":[2.3498617E5,1.0481715E5,1.30169016E5,4.4329966E3,1.0038416E5,1.0902304E5,2.1145977E4,4.172079E3,2.609171E2,1.0032718E5,5.697405E1,8.568729E4,2.333575E4,1.4358251E4,6.787725E3,3.5337014E3,6.383778E2,2.2888997E2,3.2027153E1,8.734E4,1.2987175E4,2.7451399E1,2.9522648E1,6.934752E4,1.63397705E4,7.215518E3,1.6120232E4,1.3372239E4,9.860123E2,5.57678E3,1.2109452E3,2.5611494E3,9.72552E2,5.065832E2,1.3179462E2,1.9089119E2,3.7998787E1,3.06906E1,1.3365548E0,1.2210876E4,7.7629834E2,2.285924E1,6.663408E0,5.2310535E4,1.7036986E4,1.3183292E4,3.156478E3,6.303968E3,9.1155005E2,1.2711692E4,3.40854E3,1.2210016E4,1.162223E3,1.123744E2,8.7363794E2,3.5606904E3,2.0160895E3,8.9333244E1,1.1216119E3,2.5597568E3,1.3926277E0,9.7011884E2,2.4331768E0,4.925652E2,1.4018001E1,2.6624908E1,1.0516971E2,1.2509484E2,6.579635E1,4.873214E0,3.3125572E1,2.841252E1,2.278079E0,1.14810625E4,7.298143E2,2.326252E2,5.4367316E2,1.9620405E1,3.2388356E0,2.5890047E4,2.6420488E4,1.5130435E4,1.9065508E3,1.2070506E4,1.112786E3,2.84831E2,2.871647E3,3.9740618E3,2.3299062E3,7.986763E2,1.12873764E2,1.1318238E4,1.3934546E3,2.948576E3,4.599641E2,8.906791E3,3.303225E3,8.516569E2,3.1056607E2,1.05508E2,6.8663983E0,6.22986E2,2.5065195E2,1.6710203E3,1.8896702E3,1.767774E3,2.4831543E2,6.6499344E1,2.2833904E1,1.0466233E3,7.498863E1],"tree_param":{"num_deleted":"0","num_feature":"95","num_nodes":"111","size_leaf_vector":"1"}},{"base_weights":[-1.6548184E-1,-1.0821424E0,3.9302334E-1,-9.136005E-1,-1.0898609E0,3.2652912E-1,7.645194E-1,-9.8442936E-1,-9.961382E-3,-1.0917807E0,-8.848718E-1,3.6899963E-1,-5.498108E-2,6.879576E-1,1.0053021E0,-1.0303445E0,-7.449915E-1,9.713417E-2,-9.2919457E-1,-3.2886294E-1,-1.0590283E0,-3.287536E-1,-4.5991826E-1,5.3050846E-1,2.7131E-1,-1.3870999E-1,4.2707384E-1,5.370959E-1,7.9469943E-1,1.0671538E0,7.967799E-1,-1.0575885E0,-9.5880485E-1,-6.394627E-1,-1.0240026E0,-1.1223112E-2,1.045302E0,-9.904334E-1,3.6255345E-2,-1.076212E0,-9.106298E-1,2.2593403E0,-5.461219E-1,4.525449E-1,8.8556516E-1,2.3080862E-1,7.291066E-1,4.9785158E-1,-1.756981E-1,7.03798E-1,1.8886453E-1,9.993744E-1,4.3807298E-1,6.669603E-1,9.3318564E-1,9.917049E-1,1.1711563E0,6.645408E-1,9.4464E-1,-3.1756145E-1,4.1686434E-2,-1.9037761E-1,-2.9328442E-1,-1.500127E-1,-2.9530847E-1,-3.2200482E-1,-2.4226932E-1,9.493939E-2,-1.2644126E-1,4.6600465E-2,6.3632715E-1,-3.1576294E-1,-6.620268E-2,-3.1185567E-1,-3.257161E-1,-2.3067546E-1,-3.0650324E-1,2.4494985E-1,8.995392E-1,9.913068E-4,-2.736505E-1,7.087933E-2,1.9188124E-1,1.3109261E-1,4.9369085E-1,5.4115586E-2,1.7913413E-1,2.957131E-1,1.44873E-1,1.5856482E-2,2.706344E-1,-8.112084E-2,4.7289528E-2,1.5404126E-1,3.2197368E-1,2.0783036E-3,2.233299E-1,2.5260177E-1,3.55102E-1,1.7913888E-1,4.3726932E-2,2.3206232E-1,1.353423E-1,1.0214238E-1,2.872576E-1,3.089632E-1,1.976968E-1,-3.2292276E-3,3.5269547E-1,2.1339203E-1,-1.0433563E-2,2.908503E-1,8.57767E-2],"categories":[],"categories_nodes":[],"categories_segments":[],"categories_sizes":[],"default_left":[0,0,0,0,0,0,0,0,0,0,0,0,0,0,0,0,0,0,0,0,0,0,0,0,0,0,0,0,0,0,0,0,0,0,0,0,0,0,0,0,0,0,0,0,0,0,0,0,0,0,0,0,0,0,0,0,0,0,0,0,0,0,0,0,0,0,0,0,0,0,0,0,0,0,0,0,0,0,0,0,0,0,0,0,0,0,0,0,0,0,0,0,0,0,0,0,0,0,0,0,0,0,0,0,0,0,0,0,0,0,0,0,0],"id":3,"left_children":[1,3,5,7,9,11,13,15,17,19,21,23,25,27,29,31,33,35,37,-1,39,-1,41,43,45,47,49,51,53,55,57,59,61,63,65,67,69,71,-1,73,75,77,79,81,83,85,87,89,91,93,95,97,99,101,103,105,107,109,111,-1,-1,-1,-1,-1,-1,-1,-1,-1,-1,-1,-1,-1,-1,-1,-1,-1,-1,-1,-1,-1,-1,-1,-1,-1,-1,-1,-1,-1,-1,-1,-1,-1,-1,-1,-1,-1,-1,-1,-1,-1,-1,-1,-1,-1,-1,-1,-1,-1,-1,-1,-1,-1,-1],"loss_changes":[1.0852051E5,1.0339844E2,3.2534902E3,2.253147E2,2.9226562E1,1.8102529E3,3.679336E2,3.5122803E1,2.5380562E1,9.875E0,6.379712E1,1.5860137E3,4.517989E2,2.4394287E2,6.1342285E1,4.319824E0,1.4918091E1,2.3744316E1,1.8495426E0,0E0,2.21875E1,0E0,5.7413662E1,1.0484053E3,1.1613389E3,2.2463033E2,1.0906427E2,2.875459E2,1.5655371E2,2.7997559E1,2.1018555E1,2.3881836E0,4.0477905E0,1.8089188E1,6.6567993E-1,2.813487E1,2.2362665E1,9.881859E-1,0E0,1.7099609E0,1.41536255E1,5.6128044E0,4.6884193E1,1.2568047E3,2.3248335E3,1.0629307E3,3.211609E2,9.421205E1,2.8458618E2,5.3307922E1,9.011582E1,3.11698E1,2.4089813E2,1.0604419E2,6.114038E1,2.6756592E1,8.284424E0,1.9247559E1,8.243256E0,0E0,0E0,0E0,0E0,0E0,0E0,0E0,0E0,0E0,0E0,0E0,0E0,0E0,0E0,0E0,0E0,0E0,0E0,0E0,0E0,0E0,0E0,0E0,0E0,0E0,0E0,0E0,0E0,0E0,0E0,0E0,0E0,0E0,0E0,0E0,0E0,0E0,0E0,0E0,0E0,0E0,0E0,0E0,0E0,0E0,0E0,0E0,0E0,0E0,0E0,0E0,0E0,0E0,0E0],"parents":[2147483647,0,0,1,1,2,2,3,3,4,4,5,5,6,6,7,7,8,8,9,9,10,10,11,11,12,12,13,13,14,14,15,15,16,16,17,17,18,18,20,20,22,22,23,23,24,24,25,25,26,26,27,27,28,28,29,29,30,30,31,31,32,32,33,33,34,34,35,35,36,36,37,37,39,39,40,40,41,41,42,42,43,43,44,44,45,45,46,46,47,47,48,48,49,49,50,50,51,51,52,52,53,53,54,54,55,55,56,56,57,57,58,58],"right_children":[2,4,6,8,10,12,14,16,18,20,22,24,26,28,30,32,34,36,38,-1,40,-1,42,44,46,48,50,52,54,56,58,60,62,64,66,68,70,72,-1,74,76,78,80,82,84,86,88,90,92,94,96,98,100,102,104,106,108,110,112,-1,-1,-1,-1,-1,-1,-1,-1,-1,-1,-1,-1,-1,-1,-1,-1,-1,-1,-1,-1,-1,-1,-1,-1,-1,-1,-1,-1,-1,-1,-1,-1,-1,-1,-1,-1,-1,-1,-1,-1,-1,-1,-1,-1,-1,-1,-1,-1,-1,-1,-1,-1,-1,-1],"split_conditions":[1.385E1,2E0,1E0,3.6E1,6.1E1,3.9495E1,1.3E1,8E0,-3.4404844E-1,1E0,1E0,1E0,5.37E-1,3E0,1E0,2E0,1E0,3.948824E1,2.9E1,-3.2886294E-1,1.8E1,-3.287536E-1,8.2E1,1E0,1E0,2.5E1,7.364E1,1E0,2E0,2.97E-1,6E0,5.9E1,1.4763286E3,9E0,3.948402E1,9.4E1,-3.7520927E-1,7.06E-1,3.6255345E-2,1E0,1E0,1.8E1,1.1E1,1.7E1,-4.9E-2,6.34E-1,4E0,1.4E1,1E0,2.1E1,1E0,1E0,3.891E1,1E0,5E0,1.67E2,-8.1517684E-1,1.4E1,2.5E1,-3.1756145E-1,4.1686434E-2,-1.9037761E-1,-2.9328442E-1,-1.500127E-1,-2.9530847E-1,-3.2200482E-1,-2.4226932E-1,9.493939E-2,-1.2644126E-1,4.6600465E-2,6.3632715E-1,-3.1576294E-1,-6.620268E-2,-3.1185567E-1,-3.257161E-1,-2.3067546E-1,-3.0650324E-1,2.4494985E-1,8.995392E-1,9.913068E-4,-2.736505E-1,7.087933E-2,1.9188124E-1,1.3109261E-1,4.9369085E-1,5.4115586E-2,1.7913413E-1,2.957131E-1,1.44873E-1,1.5856482E-2,2.706344E-1,-8.112084E-2,4.7289528E-2,1.5404126E-1,3.2197368E-1,2.0783036E-3,2.233299E-1,2.5260177E-1,3.55102E-1,1.7913888E-1,4.3726932E-2,2.3206232E-1,1.353423E-1,1.0214238E-1,2.872576E-1,3.089632E-1,1.976968E-1,-3.2292276E-3,3.5269547E-1,2.1339203E-1,-1.0433563E-2,2.908503E-1,8.57767E-2],"split_indices":[11,2,85,13,13,8,13,13,9,37,33,73,18,6,55,13,51,8,17,0,13,0,10,57,77,11,11,6,13,18,4,7,19,5,8,10,9,18,0,69,69,15,7,13,9,18,7,13,84,12,84,77,8,75,7,11,9,5,5,0,0,0,0,0,0,0,0,0,0,0,0,0,0,0,0,0,0,0,0,0,0,0,0,0,0,0,0,0,0,0,0,0,0,0,0,0,0,0,0,0,0,0,0,0,0,0,0,0,0,0,0,0,0],"split_type":[0,0,0,0,0,0,0,0,0,0,0,0,0,0,0,0,0,0,0,0,0,0,0,0,0,0,0,0,0,0,0,0,0,0,0,0,0,0,0,0,0,0,0,0,0,0,0,0,0,0,0,0,0,0,0,0,0,0,0,0,0,0,0,0,0,0,0,0,0,0,0,0,0,0,0,0,0,0,0,0,0,0,0,0,0,0,0,0,0,0,0,0,0,0,0,0,0,0,0,0,0,0,0,0,0,0,0,0,0,0,0,0,0],"sum_hessian":[2.1196897E5,8.0252164E4,1.3171681E5,3.5194905E3,7.673267E4,1.1172159E5,1.9995213E4,3.2635947E3,2.5589577E2,7.601646E4,7.162151E2,1.00530375E5,1.1191221E4,1.5174139E4,4.8210747E3,2.7356902E3,5.2790454E2,2.299945E2,2.5901253E1,6.693254E4,9.083918E3,4.775505E2,2.3866463E2,3.7887348E4,6.2643027E4,9.535667E3,1.6555535E3,6.290128E3,8.884011E3,3.7150105E3,1.1060641E3,1.971219E3,7.644712E2,3.8542087E2,1.4248366E2,2.0729308E2,2.2701433E1,2.452757E1,1.3736808E0,8.1356025E3,9.4831525E2,6.558858E0,2.3210577E2,3.1067746E4,6.8196006E3,5.7552824E4,5.0902065E3,5.229688E2,9.012698E3,7.649583E2,8.9059515E2,1.1080792E3,5.182049E3,4.6243467E3,4.259664E3,2.1591692E3,1.5558414E3,5.8677496E2,5.192891E2,1.9697711E3,1.447919E0,4.3825123E1,7.2064606E2,2.7621484E2,1.0920604E2,1.12805466E2,2.9678202E1,1.15369576E2,9.192351E1,1.3049975E1,9.651458E0,2.235633E1,2.1712399E0,1.6970084E3,6.438594E3,4.2011557E2,5.2819965E2,2.9347088E0,3.624149E0,9.320236E1,1.3890341E2,1.440952E4,1.6658227E4,4.289522E3,2.5300784E3,5.059035E4,6.96247E3,2.4909539E3,2.5992527E3,2.4948093E2,2.734879E2,7.0187427E3,1.9939557E3,5.064446E2,2.5851373E2,6.716549E2,2.1894023E2,6.00713E2,5.0736627E2,3.355303E3,1.8267457E3,3.0938752E3,1.5304713E3,1.6861505E2,4.0910488E3,1.935064E3,2.2410518E2,5.889716E0,1.5499517E3,5.499788E2,3.679614E1,4.9994852E2,1.934061E1],"tree_param":{"num_deleted":"0","num_feature":"95","num_nodes":"113","size_leaf_vector":"1"}},{"base_weights":[-1.4409204E-1,-1.0501919E0,2.7532387E-1,-8.431935E-1,-1.0601572E0,2.2441919E-1,5.845537E-1,-9.24914E-1,-1.5516685E-2,-1.0626191E0,-8.123662E-1,2.0534307E-1,8.119217E-1,5.005967E-1,7.872908E-1,-9.8256254E-1,-6.4843225E-1,3.110093E-1,-2.819242E-1,-3.2055545E-1,-1.0194795E0,-3.2032436E-1,-3.781095E-1,1.5805179E-1,4.3605813E-1,8.816984E-1,4.093764E-2,3.0846605E-1,5.7661647E-1,9.650086E-1,7.0422304E-1,-1.0176219E0,-8.931402E-1,-7.5487715E-1,-2.8123134E-1,-6.320276E-1,5.3439736E-1,1.7589076E-1,-6.6263366E-1,-1.0420744E0,-8.337442E-1,-6.2336978E-2,-8.8380873E-1,1.0242679E-1,4.2126462E-1,3.1326807E-1,6.2166077E-1,1.0005264E0,4.049407E-1,2.6485074E-1,-4.9963158E-1,3.4282172E-1,-5.6673807E-1,6.3180304E-1,3.042543E-1,1.0052897E0,5.1817495E-1,6.183202E-1,1.0685683E0,-3.056443E-1,3.355208E-2,-2.3603083E-1,-2.9534957E-1,-1.5088673E-1,-2.746292E-1,-1.3013455E-2,-3.1982633E-1,-3.496933E-1,-4.2095542E-2,2.1171476E-1,-2.0911795E-1,1.2716271E-1,-3.30209E-1,1.8321906E-1,-2.3734097E-1,-2.9862583E-1,-3.162941E-1,-1.8421444E-1,-2.8297865E-1,1.8962146E-1,-1.4793712E-1,2.0447782E-1,-2.9401648E-1,1.5965462E-2,1.1772037E-1,9.331362E-2,2.3098005E-1,1.4516556E-1,4.518317E-2,2.1479096E-1,7.155929E-2,3.098106E-1,-1.0067613E-2,4.687267E-2,2.1303882E-1,1.6356216E-1,-1.1529022E-2,1.784032E-2,-2.3975818E-1,1.5767026E-1,7.3824145E-2,-2.5100687E-1,4.0480196E-2,2.133175E-1,1.1549079E-1,-4.1025806E-2,1.4658312E-1,3.1704605E-1,2.1839012E-1,2.445071E-1,1.2304037E-2,1.9142404E-1,-7.630674E-2,3.3101523E-1,2.353054E-1],"categories":[],"categories_nodes":[],"categories_segments":[],"categories_sizes":[],"default_left":[0,0,0,0,0,0,0,0,0,0,0,0,0,0,0,0,0,0,0,0,0,0,0,0,0,0,0,0,0,0,0,0,0,0,0,0,0,0,0,0,0,0,0,0,0,0,0,0,0,0,0,0,0,0,0,0,0,0,0,0,0,0,0,0,0,0,0,0,0,0,0,0,0,0,0,0,0,0,0,0,0,0,0,0,0,0,0,0,0,0,0,0,0,0,0,0,0,0,0,0,0,0,0,0,0,0,0,0,0,0,0,0,0,0,0],"id":4,"left_children":[1,3,5,7,9,11,13,15,17,19,21,23,25,27,29,31,33,35,37,-1,39,-1,41,43,45,47,49,51,53,55,57,59,61,63,65,67,69,71,73,75,77,79,81,83,85,87,89,91,93,95,97,99,101,103,105,107,109,111,113,-1,-1,-1,-1,-1,-1,-1,-1,-1,-1,-1,-1,-1,-1,-1,-1,-1,-1,-1,-1,-1,-1,-1,-1,-1,-1,-1,-1,-1,-1,-1,-1,-1,-1,-1,-1,-1,-1,-1,-1,-1,-1,-1,-1,-1,-1,-1,-1,-1,-1,-1,-1,-1,-1,-1,-1],"loss_changes":[7.3261336E4,1.249375E2,2.0742334E3,1.898158E2,3.463672E1,1.267977E3,3.16646E2,4.0075684E1,2.211504E1,1.3574219E1,6.3557465E1,1.1957183E3,1.913833E2,1.9224316E2,7.981885E1,5.711426E0,1.7128387E1,2.4405676E1,2.4512863E1,0E0,2.830957E1,0E0,3.4296932E1,1.3316455E3,4.246765E2,1.8444238E2,3.6002926E1,1.125603E2,1.416726E2,3.0692627E1,1.1575818E2,2.1472168E0,5.084503E0,1.3427032E1,1.8863922E1,5.697693E0,2.0093258E1,2.0835165E1,1.30224E1,2.487793E0,1.768457E1,4.0248806E1,1.3115364E1,1.0714268E3,6.0956104E2,3.113601E2,2.6799854E2,8.6914795E1,4.9426353E1,1.7894043E1,1.4643265E1,6.345346E1,2.6921375E1,1.5323999E2,1.295107E2,2.194873E1,2.0571545E1,5.210742E1,6.1434326E0,0E0,0E0,0E0,0E0,0E0,0E0,0E0,0E0,0E0,0E0,0E0,0E0,0E0,0E0,0E0,0E0,0E0,0E0,0E0,0E0,0E0,0E0,0E0,0E0,0E0,0E0,0E0,0E0,0E0,0E0,0E0,0E0,0E0,0E0,0E0,0E0,0E0,0E0,0E0,0E0,0E0,0E0,0E0,0E0,0E0,0E0,0E0,0E0,0E0,0E0,0E0,0E0,0E0,0E0,0E0,0E0],"parents":[2147483647,0,0,1,1,2,2,3,3,4,4,5,5,6,6,7,7,8,8,9,9,10,10,11,11,12,12,13,13,14,14,15,15,16,16,17,17,18,18,20,20,22,22,23,23,24,24,25,25,26,26,27,27,28,28,29,29,30,30,31,31,32,32,33,33,34,34,35,35,36,36,37,37,38,38,39,39,40,40,41,41,42,42,43,43,44,44,45,45,46,46,47,47,48,48,49,49,50,50,51,51,52,52,53,53,54,54,55,55,56,56,57,57,58,58],"right_children":[2,4,6,8,10,12,14,16,18,20,22,24,26,28,30,32,34,36,38,-1,40,-1,42,44,46,48,50,52,54,56,58,60,62,64,66,68,70,72,74,76,78,80,82,84,86,88,90,92,94,96,98,100,102,104,106,108,110,112,114,-1,-1,-1,-1,-1,-1,-1,-1,-1,-1,-1,-1,-1,-1,-1,-1,-1,-1,-1,-1,-1,-1,-1,-1,-1,-1,-1,-1,-1,-1,-1,-1,-1,-1,-1,-1,-1,-1,-1,-1,-1,-1,-1,-1,-1,-1,-1,-1,-1,-1,-1,-1,-1,-1,-1,-1],"split_conditions":[1.385E1,2E0,1E0,3.6E1,6.1E1,1.3E2,9E0,8E0,-3.8737E-1,1E0,1E0,1E0,1E0,4.04E2,1E0,2E0,3.948402E1,7E0,1E1,-3.2055545E-1,1.8E1,-3.2032436E-1,1.6E1,1E0,6E0,8.58025E1,9.6E1,2.4713553E4,4.41E3,1E0,6.7E1,5.9E1,4.1241396E3,1E0,6.5408926E3,5.1E1,2E0,2E0,8.1E1,1E0,-3.8737E-1,-3.8737E-1,8.3E1,1E0,1.7E1,1.01E2,1E0,-3.2062277E-1,9.6E1,5.789E1,1E0,3.441759E3,1.26E2,3.23E2,2E0,2.21E2,7.5507183E3,2.6499455E4,1.32E2,-3.056443E-1,3.355208E-2,-2.3603083E-1,-2.9534957E-1,-1.5088673E-1,-2.746292E-1,-1.3013455E-2,-3.1982633E-1,-3.496933E-1,-4.2095542E-2,2.1171476E-1,-2.0911795E-1,1.2716271E-1,-3.30209E-1,1.8321906E-1,-2.3734097E-1,-2.9862583E-1,-3.162941E-1,-1.8421444E-1,-2.8297865E-1,1.8962146E-1,-1.4793712E-1,2.0447782E-1,-2.9401648E-1,1.5965462E-2,1.1772037E-1,9.331362E-2,2.3098005E-1,1.4516556E-1,4.518317E-2,2.1479096E-1,7.155929E-2,3.098106E-1,-1.0067613E-2,4.687267E-2,2.1303882E-1,1.6356216E-1,-1.1529022E-2,1.784032E-2,-2.3975818E-1,1.5767026E-1,7.3824145E-2,-2.5100687E-1,4.0480196E-2,2.133175E-1,1.1549079E-1,-4.1025806E-2,1.4658312E-1,3.1704605E-1,2.1839012E-1,2.445071E-1,1.2304037E-2,1.9142404E-1,-7.630674E-2,3.3101523E-1,2.353054E-1],"split_indices":[11,2,85,13,13,13,13,13,9,37,33,84,78,23,63,13,8,7,7,0,13,0,7,86,13,25,15,19,23,33,13,7,19,69,19,13,1,5,10,69,9,9,10,87,13,3,45,9,10,11,75,19,3,3,6,11,19,19,11,0,0,0,0,0,0,0,0,0,0,0,0,0,0,0,0,0,0,0,0,0,0,0,0,0,0,0,0,0,0,0,0,0,0,0,0,0,0,0,0,0,0,0,0,0,0,0,0,0,0,0,0,0,0,0,0],"split_type":[0,0,0,0,0,0,0,0,0,0,0,0,0,0,0,0,0,0,0,0,0,0,0,0,0,0,0,0,0,0,0,0,0,0,0,0,0,0,0,0,0,0,0,0,0,0,0,0,0,0,0,0,0,0,0,0,0,0,0,0,0,0,0,0,0,0,0,0,0,0,0,0,0,0,0,0,0,0,0,0,0,0,0,0,0,0,0,0,0,0,0,0,0,0,0,0,0,0,0,0,0,0,0,0,0,0,0,0,0,0,0,0,0,0,0],"sum_hessian":[1.9277469E5,6.099674E4,1.3177794E5,2.805551E3,5.8191188E4,1.1315274E5,1.8625203E4,2.5533308E3,2.5222014E2,5.7615445E4,5.757404E2,1.0959554E5,3.5572004E3,1.31733545E4,5.451849E3,2.1106836E3,4.4264728E2,1.1324835E2,1.389718E2,5.0663742E4,6.9517026E3,3.6161798E2,2.1412244E2,9.095379E4,1.864175E4,3.2618484E3,2.95352E2,3.736035E3,9.437319E3,1.7331906E3,3.7186587E3,1.5087683E3,6.019152E2,3.4235034E2,1.0029693E2,2.1338442E1,9.190991E1,6.3340668E1,7.563113E1,6.19363E3,7.5807275E2,1.3250557E2,8.161687E1,7.508698E4,1.586681E4,1.1220943E4,7.4208066E3,2.6101826E3,6.5166583E2,2.092055E2,8.614648E1,3.5955037E3,1.4053127E2,7.8461895E3,1.5911298E3,1.5887212E3,1.4446935E2,3.0113584E3,7.073003E2,1.507275E3,1.4932773E0,2.825487E2,3.193665E2,1.3486652E2,2.0748383E2,7.778056E1,2.2516369E1,9.575856E0,1.1762586E1,8.1059906E1,1.0850006E1,5.359707E1,9.743598E0,6.5887823E0,6.904234E1,1.3042522E3,4.8893774E3,2.5438194E2,5.036908E2,5.0551548E1,8.1954025E1,4.375152E0,7.7241714E1,6.419439E4,1.0892588E4,1.2057235E4,3.809574E3,5.475513E3,5.7454307E3,5.9542695E3,1.4665374E3,2.5314187E3,7.876371E1,3.5989725E2,2.917686E2,1.0829687E2,1.0090864E2,3.0333637E1,5.5812836E1,1.2430082E3,2.3524956E3,1.0134774E2,3.9183525E1,5.937764E3,1.908425E3,4.6913885E2,1.1219908E3,1.3374023E3,2.5131891E2,8.862589E1,5.584345E1,2.944945E3,6.641328E1,6.275458E2,7.9754486E1],"tree_param":{"num_deleted":"0","num_feature":"95","num_nodes":"115","size_leaf_vector":"1"}},{"base_weights":[-1.2284741E-1,-1.0248729E0,1.9572742E-1,-7.740273E-1,-1.0377214E0,1.5725024E-1,4.4650015E-1,-9.1640264E-1,-2.3538883E-1,-1.040872E0,-7.425912E-1,1.9167088E-1,-7.4604124E-2,3.6143804E-1,6.5116125E-1,-9.635593E-1,-7.38284E-1,-1.0761081E-1,-9.2204106E-1,-3.1462872E-1,-9.8402333E-1,-3.142534E-1,-3.113862E-1,2.2066528E-1,-9.661374E-2,-3.474067E-1,9.9720456E-2,2.317784E-1,5.0149554E-1,8.283041E-1,5.5147153E-1,-8.6504483E-1,-9.821565E-1,-5.986583E-1,-8.896723E-1,-5.058073E-1,1.5442796E-1,-9.854671E-1,4.680645E-1,-1.0136375E0,-7.5538546E-1,-2.3031974E-2,-8.0393517E-1,1.5416265E-1,3.6979637E-1,-1.5867981E-1,1.6812612E-1,-6.694227E-1,-2.1163104E-1,2.0690416E-1,-3.0360967E-1,9.734198E-2,4.6227434E-1,1.4330378E-1,5.525667E-1,8.400791E-1,-3.0993176E-1,7.1533114E-1,3.205925E-1,-2.8975827E-1,-1.8862566E-1,-2.950845E-1,-2.8300695E-3,-2.020226E-1,4.8596624E-2,-2.9053354E-1,-2.0449512E-1,7.442738E-2,-2.0936239E-1,7.433417E-2,-2.7169415E-1,-3.1079695E-1,-1.4441285E-1,4.8113844E-1,-2.0145474E-1,-2.861179E-1,-3.088861E-1,-1.6787437E-1,-2.763518E-1,8.660592E-2,-1.9979393E-1,1.765891E-1,-2.909999E-1,8.6865164E-2,-1.005404E-2,1.3886595E-1,2.049416E-2,-3.5470594E-2,-1.978484E-1,2.567196E-1,2.23613E-2,-2.8051597E-1,-1.3362393E-1,-4.8540486E-3,-9.807939E-2,-4.248972E-2,1.0451902E-1,-1.5582213E-1,2.259024E-2,1.1573168E-1,-6.7716967E-3,1.9473715E-1,3.966106E-3,6.144395E-2,-3.041016E-1,1.9030045E-1,1.1750193E-1,2.8295833E-1,2.1537994E-1,2.2781715E-1,-2.1041335E-1,1.5959875E-1,2.4707781E-1,-7.810519E-2,1.5079974E-1],"categories":[],"categories_nodes":[],"categories_segments":[],"categories_sizes":[],"default_left":[0,0,0,0,0,0,0,0,0,0,0,0,0,0,0,0,0,0,0,0,0,0,0,0,0,0,0,0,0,0,0,0,0,0,0,0,0,0,0,0,0,0,0,0,0,0,0,0,0,0,0,0,0,0,0,0,0,0,0,0,0,0,0,0,0,0,0,0,0,0,0,0,0,0,0,0,0,0,0,0,0,0,0,0,0,0,0,0,0,0,0,0,0,0,0,0,0,0,0,0,0,0,0,0,0,0,0,0,0,0,0,0,0,0,0],"id":5,"left_children":[1,3,5,7,9,11,13,15,17,19,21,23,25,27,29,31,33,35,37,-1,39,-1,41,43,45,47,49,51,53,55,57,59,61,63,65,67,69,71,73,75,77,79,81,83,85,87,89,91,93,95,97,99,101,103,105,107,109,111,113,-1,-1,-1,-1,-1,-1,-1,-1,-1,-1,-1,-1,-1,-1,-1,-1,-1,-1,-1,-1,-1,-1,-1,-1,-1,-1,-1,-1,-1,-1,-1,-1,-1,-1,-1,-1,-1,-1,-1,-1,-1,-1,-1,-1,-1,-1,-1,-1,-1,-1,-1,-1,-1,-1,-1,-1],"loss_changes":[5.0817676E4,1.4796094E2,1.2609282E3,1.7255359E2,4.005078E1,9.042427E2,3.0239966E2,1.4252441E1,4.1343185E1,1.8449219E1,6.110492E1,8.246643E2,6.965986E2,2.2292749E2,8.96521E1,1.7250977E0,7.440567E0,4.1748814E1,6.9834747E0,0E0,3.518994E1,0E0,2.7670666E1,8.8897705E2,1.4817947E2,2.4954645E2,3.8642847E2,1.9764447E2,1.0791565E2,2.4861328E1,1.23409546E2,4.9086914E0,1.6573486E0,1.1439941E1,2.2717438E0,2.315797E1,2.4136003E1,1.3112564E0,6.132204E0,3.5170898E0,1.9379364E1,2.5043354E1,1.721191E1,1.5753123E3,7.758369E2,1.4787811E2,1.1016261E2,1.0034119E2,9.055423E1,3.4829095E2,1.5350328E2,1.3942148E2,1.9716507E2,5.2730225E1,6.77218E1,2.220813E1,8.705175E0,3.748535E1,1.4381885E2,0E0,0E0,0E0,0E0,0E0,0E0,0E0,0E0,0E0,0E0,0E0,0E0,0E0,0E0,0E0,0E0,0E0,0E0,0E0,0E0,0E0,0E0,0E0,0E0,0E0,0E0,0E0,0E0,0E0,0E0,0E0,0E0,0E0,0E0,0E0,0E0,0E0,0E0,0E0,0E0,0E0,0E0,0E0,0E0,0E0,0E0,0E0,0E0,0E0,0E0,0E0,0E0,0E0,0E0,0E0,0E0],"parents":[2147483647,0,0,1,1,2,2,3,3,4,4,5,5,6,6,7,7,8,8,9,9,10,10,11,11,12,12,13,13,14,14,15,15,16,16,17,17,18,18,20,20,22,22,23,23,24,24,25,25,26,26,27,27,28,28,29,29,30,30,31,31,32,32,33,33,34,34,35,35,36,36,37,37,38,38,39,39,40,40,41,41,42,42,43,43,44,44,45,45,46,46,47,47,48,48,49,49,50,50,51,51,52,52,53,53,54,54,55,55,56,56,57,57,58,58],"right_children":[2,4,6,8,10,12,14,16,18,20,22,24,26,28,30,32,34,36,38,-1,40,-1,42,44,46,48,50,52,54,56,58,60,62,64,66,68,70,72,74,76,78,80,82,84,86,88,90,92,94,96,98,100,102,104,106,108,110,112,114,-1,-1,-1,-1,-1,-1,-1,-1,-1,-1,-1,-1,-1,-1,-1,-1,-1,-1,-1,-1,-1,-1,-1,-1,-1,-1,-1,-1,-1,-1,-1,-1,-1,-1,-1,-1,-1,-1,-1,-1,-1,-1,-1,-1,-1,-1,-1,-1,-1,-1,-1,-1,-1,-1,-1,-1],"split_conditions":[1.385E1,2E0,1E0,1.3E1,6.1E1,1.3E1,1.78E-1,4E0,1E0,1E0,1E0,3.9520668E1,1E1,2E0,1E0,1E0,4.3424917E3,1E0,1.9E1,-3.1462872E-1,1.8E1,-3.142534E-1,1E0,8.1E-3,4.67E-1,2E0,1.25E2,1E0,8E0,3.5155793E4,2.04E2,2E0,5.6E1,8E0,9E0,9.1E1,1.3E1,1E0,2.91651E5,1E0,1E0,1.6E1,6.4E1,9.1E1,1E0,1.2903779E4,1E0,7.045E4,8.5E1,6.5666E4,9.7E1,1E0,1.13E2,3E0,1.21E2,1E0,5.914E1,8.489667E1,2E0,-2.8975827E-1,-1.8862566E-1,-2.950845E-1,-2.8300695E-3,-2.020226E-1,4.8596624E-2,-2.9053354E-1,-2.0449512E-1,7.442738E-2,-2.0936239E-1,7.433417E-2,-2.7169415E-1,-3.1079695E-1,-1.4441285E-1,4.8113844E-1,-2.0145474E-1,-2.861179E-1,-3.088861E-1,-1.6787437E-1,-2.763518E-1,8.660592E-2,-1.9979393E-1,1.765891E-1,-2.909999E-1,8.6865164E-2,-1.005404E-2,1.3886595E-1,2.049416E-2,-3.5470594E-2,-1.978484E-1,2.567196E-1,2.23613E-2,-2.8051597E-1,-1.3362393E-1,-4.8540486E-3,-9.807939E-2,-4.248972E-2,1.0451902E-1,-1.5582213E-1,2.259024E-2,1.1573168E-1,-6.7716967E-3,1.9473715E-1,3.966106E-3,6.144395E-2,-3.041016E-1,1.9030045E-1,1.1750193E-1,2.8295833E-1,2.1537994E-1,2.2781715E-1,-2.1041335E-1,1.5959875E-1,2.4707781E-1,-7.810519E-2,1.5079974E-1],"split_indices":[11,2,85,13,13,5,18,13,51,37,33,8,13,13,73,69,19,59,5,0,13,0,69,9,18,6,11,45,7,19,3,13,7,6,13,10,5,78,22,69,69,7,13,11,75,19,6,20,11,22,10,73,3,12,11,63,11,25,6,0,0,0,0,0,0,0,0,0,0,0,0,0,0,0,0,0,0,0,0,0,0,0,0,0,0,0,0,0,0,0,0,0,0,0,0,0,0,0,0,0,0,0,0,0,0,0,0,0,0,0,0,0,0,0,0],"split_type":[0,0,0,0,0,0,0,0,0,0,0,0,0,0,0,0,0,0,0,0,0,0,0,0,0,0,0,0,0,0,0,0,0,0,0,0,0,0,0,0,0,0,0,0,0,0,0,0,0,0,0,0,0,0,0,0,0,0,0,0,0,0,0,0,0,0,0,0,0,0,0,0,0,0,0,0,0,0,0,0,0,0,0,0,0,0,0,0,0,0,0,0,0,0,0,0,0,0,0,0,0,0,0,0,0,0,0,0,0,0,0,0,0,0,0],"sum_hessian":[1.7683995E5,4.6154383E4,1.3068557E5,2.2518599E3,4.390252E4,1.1330266E5,1.7382912E4,1.7805227E3,4.7133704E2,4.3436305E4,4.6621677E2,9.8656484E4,1.4646178E4,1.2281278E4,5.1016333E3,1.4043207E3,3.762021E2,3.98363E2,7.297402E1,3.8126984E4,5.3093213E3,2.7226175E2,1.93955E2,8.9641016E4,9.015464E3,5.7098203E3,8.936357E3,6.378745E3,5.902533E3,1.8345082E3,3.267125E3,2.3054971E2,1.1737709E3,1.9828131E2,1.7792079E2,1.5773587E2,2.4062714E2,7.006812E1,2.9058974E0,4.6974536E3,6.11868E2,1.2299593E2,7.095907E1,6.1996637E4,2.764438E4,7.303596E3,1.7118673E3,1.6923E3,4.0175203E3,7.0605303E3,1.8758267E3,4.0297952E3,2.3489497E3,7.3704144E2,5.1654917E3,1.8159838E3,1.852439E1,1.9096843E3,1.3574406E3,1.5943712E2,7.11126E1,1.1720024E3,1.7684536E0,1.8064377E2,1.7637535E1,1.26400536E2,5.1520252E1,3.1967196E1,1.2576868E2,2.2185625E2,1.8770897E1,6.2726208E1,7.341916E0,1.2513847E0,1.6545128E0,1.0020291E3,3.6954243E3,2.825433E2,3.2932465E2,8.320628E1,3.978965E1,7.28923E0,6.3669838E1,3.601511E4,2.5981527E4,2.1121932E4,6.5224497E3,6.7589937E3,5.4460266E2,2.0410909E2,1.5077582E3,7.727725E2,9.195276E2,1.4910729E3,2.5264475E3,2.0386796E3,5.021851E3,1.1949225E3,6.809041E2,1.1827369E3,2.8470583E3,1.658436E3,6.9051373E2,7.006169E2,3.6424576E1,3.4229592E3,1.7425326E3,9.810571E2,8.349267E2,4.7121468E0,1.38122425E1,7.112066E2,1.1984778E3,3.2381396E2,1.0336266E3],"tree_param":{"num_deleted":"0","num_feature":"95","num_nodes":"115","size_leaf_vector":"1"}},{"base_weights":[-1.0318015E-1,-1.0028516E0,1.3812429E-1,-7.001697E-1,-1.0196472E0,1.6195568E-1,-1.8436399E-1,-8.6351776E-1,-1.8801804E-1,-1.0237399E0,-6.6965E-1,1.4283988E-1,5.58969E-1,-1.21392794E-1,-5.173829E-1,-9.226936E-1,-6.551527E-1,-8.5808605E-2,-8.566438E-1,-3.1029472E-1,-9.490453E-1,-3.097424E-1,-2.5321746E-1,1.7347182E-1,-9.8209836E-2,6.329592E-1,-2.1098988E-1,-2.0799173E-1,7.3495194E-2,-8.1420995E-2,-6.400447E-1,-8.029987E-1,-9.46102E-1,-8.388514E-1,-5.0564253E-1,9.111872E-3,-9.417387E-1,-9.3083966E-1,3.357548E-1,-9.876404E-1,-6.73555E-1,8.4953153E-1,-3.6116925E-1,3.048278E-1,1.1201329E-1,2.657852E-1,-3.2000658E-1,7.107386E-1,5.0784215E-2,1.4337187E-1,-4.0544105E-1,3.675933E-2,-3.5473406E-1,2.7259713E-1,-1.0508895E-1,-3.7565213E-1,6.077457E-1,-5.07783E-1,-8.021003E-1,-2.778795E-1,-1.6217324E-1,-2.8438196E-1,-2.291384E-3,-1.2857872E-2,-2.7004078E-1,-1.7835669E-1,7.664396E-2,5.1426724E-2,-1.4013276E-1,-2.9381883E-1,5.867288E-2,-3.148778E-1,-1.8240714E-1,3.0908692E-1,-1.854591E-1,-2.732299E-1,-3.0258328E-1,-1.16298154E-1,-2.4962509E-1,-2.3082605E-1,5.360254E-1,1.4500658E-2,-2.4254316E-1,7.010172E-2,1.8778864E-1,1.3548791E-1,2.3317043E-2,-7.201498E-2,1.1710519E-1,-2.3052604E-1,-7.6486155E-2,2.3471569E-1,1.3652646E-2,9.612087E-2,-1.4107382E-1,8.3681375E-2,-2.0045514E-1,-1.9164242E-1,1.7827138E-2,-7.9806484E-2,3.4949042E-2,-1.3602504E-1,-5.350851E-2,-1.0206563E-1,1.5125445E-1,-1.264088E-1,3.1348325E-2,-1.2569053E-1,2.668262E-1,4.3921348E-1,1.0496879E-1,-1.1163516E-2,-1.8101501E-1,-2.5420618E-1,-9.676786E-2],"categories":[],"categories_nodes":[],"categories_segments":[],"categories_sizes":[],"default_left":[0,0,0,0,0,0,0,0,0,0,0,0,0,0,0,0,0,0,0,0,0,0,0,0,0,0,0,0,0,0,0,0,0,0,0,0,0,0,0,0,0,0,0,0,0,0,0,0,0,0,0,0,0,0,0,0,0,0,0,0,0,0,0,0,0,0,0,0,0,0,0,0,0,0,0,0,0,0,0,0,0,0,0,0,0,0,0,0,0,0,0,0,0,0,0,0,0,0,0,0,0,0,0,0,0,0,0,0,0,0,0,0,0,0,0],"id":6,"left_children":[1,3,5,7,9,11,13,15,17,19,21,23,25,27,29,31,33,35,37,-1,39,-1,41,43,45,47,49,51,53,55,57,59,61,63,65,67,69,71,73,75,77,79,81,83,85,87,89,91,93,95,97,99,101,103,105,107,109,111,113,-1,-1,-1,-1,-1,-1,-1,-1,-1,-1,-1,-1,-1,-1,-1,-1,-1,-1,-1,-1,-1,-1,-1,-1,-1,-1,-1,-1,-1,-1,-1,-1,-1,-1,-1,-1,-1,-1,-1,-1,-1,-1,-1,-1,-1,-1,-1,-1,-1,-1,-1,-1,-1,-1,-1,-1],"loss_changes":[3.577918E4,1.7647656E2,9.987722E2,1.5340356E2,4.6617188E1,9.183081E2,1.87478E2,1.6552246E1,3.034892E1,2.4804688E1,5.7842422E1,8.525117E2,3.1680396E2,1.2696818E2,7.598169E1,2.2697754E0,8.123352E0,3.1470682E1,5.524845E0,0E0,4.250293E1,0E0,2.1779583E1,8.26937E2,1.0510702E3,2.2960913E2,3.3689854E1,1.8706987E2,8.2339355E1,6.3767654E1,2.3373169E1,5.434326E0,1.5428467E0,6.699402E0,1.19289055E1,2.710117E1,1.8476028E0,1.4982262E0,3.41045E0,4.8186035E0,2.2431198E1,2.6230766E1,3.0262083E1,7.4593774E2,8.126605E2,3.1070175E2,2.3577966E2,2.1319043E2,8.426779E1,1.9293648E1,3.4254826E1,4.7184826E1,5.6592377E1,1.5555309E2,8.098326E1,1.2439983E1,2.027261E1,2.758252E1,1.0509003E1,0E0,0E0,0E0,0E0,0E0,0E0,0E0,0E0,0E0,0E0,0E0,0E0,0E0,0E0,0E0,0E0,0E0,0E0,0E0,0E0,0E0,0E0,0E0,0E0,0E0,0E0,0E0,0E0,0E0,0E0,0E0,0E0,0E0,0E0,0E0,0E0,0E0,0E0,0E0,0E0,0E0,0E0,0E0,0E0,0E0,0E0,0E0,0E0,0E0,0E0,0E0,0E0,0E0,0E0,0E0,0E0],"parents":[2147483647,0,0,1,1,2,2,3,3,4,4,5,5,6,6,7,7,8,8,9,9,10,10,11,11,12,12,13,13,14,14,15,15,16,16,17,17,18,18,20,20,22,22,23,23,24,24,25,25,26,26,27,27,28,28,29,29,30,30,31,31,32,32,33,33,34,34,35,35,36,36,37,37,38,38,39,39,40,40,41,41,42,42,43,43,44,44,45,45,46,46,47,47,48,48,49,49,50,50,51,51,52,52,53,53,54,54,55,55,56,56,57,57,58,58],"right_children":[2,4,6,8,10,12,14,16,18,20,22,24,26,28,30,32,34,36,38,-1,40,-1,42,44,46,48,50,52,54,56,58,60,62,64,66,68,70,72,74,76,78,80,82,84,86,88,90,92,94,96,98,100,102,104,106,108,110,112,114,-1,-1,-1,-1,-1,-1,-1,-1,-1,-1,-1,-1,-1,-1,-1,-1,-1,-1,-1,-1,-1,-1,-1,-1,-1,-1,-1,-1,-1,-1,-1,-1,-1,-1,-1,-1,-1,-1,-1,-1,-1,-1,-1,-1,-1,-1,-1,-1,-1,-1,-1,-1,-1,-1,-1,-1],"split_conditions":[1.385E1,2E0,1E0,1.3E1,6.1E1,9.3E1,9.4E1,4E0,1E0,1E0,1E0,1E0,1E0,-5.16E-2,5.5E1,1E0,1E0,1.3E1,1.9E1,-3.1029472E-1,1.8E1,-3.097424E-1,8.5E1,1E0,2.8E1,1E0,5E1,6.1E1,2E0,6.055E3,1E0,2E0,5.6E1,-4.9085E-1,8E0,4.8E1,9.8E1,3.94775E1,2.91651E5,1E0,-3.8737E-1,1E0,1.1E1,1E0,1E0,3E0,6E0,1E0,7.6E1,1.32E2,5.23E-1,1E0,8.05335E5,7.012E1,1E0,7.4E1,-1.59E2,3E0,4.6E1,-2.778795E-1,-1.6217324E-1,-2.8438196E-1,-2.291384E-3,-1.2857872E-2,-2.7004078E-1,-1.7835669E-1,7.664396E-2,5.1426724E-2,-1.4013276E-1,-2.9381883E-1,5.867288E-2,-3.148778E-1,-1.8240714E-1,3.0908692E-1,-1.854591E-1,-2.732299E-1,-3.0258328E-1,-1.16298154E-1,-2.4962509E-1,-2.3082605E-1,5.360254E-1,1.4500658E-2,-2.4254316E-1,7.010172E-2,1.8778864E-1,1.3548791E-1,2.3317043E-2,-7.201498E-2,1.1710519E-1,-2.3052604E-1,-7.6486155E-2,2.3471569E-1,1.3652646E-2,9.612087E-2,-1.4107382E-1,8.3681375E-2,-2.0045514E-1,-1.9164242E-1,1.7827138E-2,-7.9806484E-2,3.4949042E-2,-1.3602504E-1,-5.350851E-2,-1.0206563E-1,1.5125445E-1,-1.264088E-1,3.1348325E-2,-1.2569053E-1,2.668262E-1,4.3921348E-1,1.0496879E-1,-1.1163516E-2,-1.8101501E-1,-2.5420618E-1,-9.676786E-2],"split_indices":[11,2,89,13,13,13,15,13,51,37,33,33,78,9,11,69,59,5,5,0,13,0,10,73,11,88,11,11,6,16,27,13,7,9,6,15,14,8,22,69,9,45,7,57,6,13,7,79,11,15,18,63,20,11,67,12,23,13,12,0,0,0,0,0,0,0,0,0,0,0,0,0,0,0,0,0,0,0,0,0,0,0,0,0,0,0,0,0,0,0,0,0,0,0,0,0,0,0,0,0,0,0,0,0,0,0,0,0,0,0,0,0,0,0,0],"split_type":[0,0,0,0,0,0,0,0,0,0,0,0,0,0,0,0,0,0,0,0,0,0,0,0,0,0,0,0,0,0,0,0,0,0,0,0,0,0,0,0,0,0,0,0,0,0,0,0,0,0,0,0,0,0,0,0,0,0,0,0,0,0,0,0,0,0,0,0,0,0,0,0,0,0,0,0,0,0,0,0,0,0,0,0,0,0,0,0,0,0,0,0,0,0,0,0,0,0,0,0,0,0,0,0,0,0,0,0,0,0,0,0,0,0,0],"sum_hessian":[1.6480745E5,3.485438E4,1.2995307E5,1.8346163E3,3.3019766E4,1.2101103E5,8.942035E3,1.3904526E3,4.4416373E2,3.2636205E4,3.8355957E2,1.1545342E5,5.5576094E3,7.521201E3,1.4208341E3,1.0802363E3,3.1021628E2,3.8624826E2,5.7915478E1,2.85772E4,4.0590051E3,2.041825E2,1.7937709E2,1.0243637E5,1.3017053E4,5.070529E3,4.870808E2,5.207271E3,2.3139304E3,3.1235007E2,1.108484E3,1.8247656E2,8.9775977E2,1.371246E2,1.7309166E2,3.4858087E2,3.766738E1,5.4729355E1,3.186124E0,3.5579634E3,5.0104175E2,1.5381586E1,1.639955E2,3.2649748E4,6.9786625E4,4.928536E3,8.088517E3,4.4727427E3,5.977858E2,1.726718E2,3.14409E2,1.952107E3,3.2551638E3,1.0938643E3,1.2200663E3,2.192142E2,9.313586E1,6.126241E2,4.958599E2,1.224356E2,6.004097E1,8.9599506E2,1.7647173E0,9.924165E0,1.2720045E2,1.5518848E2,1.790318E1,2.6045123E2,8.812962E1,3.659456E1,1.0728216E0,3.836486E1,1.6364492E1,1.7974491E0,1.3886749E0,7.720795E2,2.785884E3,1.7995383E2,3.2108792E2,5.705301E0,9.676286E0,8.608119E1,7.791431E1,2.6728992E4,5.920755E3,6.398863E3,6.338776E4,9.736823E2,3.9548538E3,1.0233912E3,7.065126E3,4.0376963E3,4.3504654E2,3.9418903E2,2.0359679E2,1.4851881E2,2.4152987E1,2.0907634E2,1.0533268E2,4.064374E2,1.5456697E3,2.086287E3,1.1688767E3,2.9987344E2,7.939908E2,4.8586172E2,7.342045E2,2.1260345E2,6.6107497E0,2.0472006E1,7.266386E1,1.0367863E2,5.0894547E2,4.5240048E2,4.345943E1],"tree_param":{"num_deleted":"0","num_feature":"95","num_nodes":"115","size_leaf_vector":"1"}},{"base_weights":[-8.514473E-2,-9.819537E-1,9.733437E-2,-6.2175494E-1,-1.0040371E0,2.1525154E-2,1.8151763E-1,-8.055967E-1,-1.4766414E-1,-3.0721262E-1,-8.8245314E-1,1.3711572E-1,-5.7890307E-2,2.2940461E-1,-1.0531376E-2,-8.783453E-1,-5.699557E-1,-3.596863E-1,1.486698E-1,-9.6395713E-1,-4.8650002E-1,-2.0607025E-3,3.03832E-1,-1.0815823E-1,2.2108437E-1,3.119739E-1,1.4441627E-1,1.3807368E-1,-1.9251736E-1,-8.1587404E-1,-9.504172E-1,-4.309147E-1,-8.4069324E-1,-6.412696E-1,1.3503555E-2,3.718008E-1,-2.8888535E-1,-8.7261534E-1,-9.896287E-1,-2.2187412E-1,-8.015415E-1,-6.538635E-2,2.9579836E-1,9.4044E-2,4.4941983E-1,-1.7016864E-1,1.3235909E-1,5.1673055E-2,3.6402735E-1,4.1174075E-1,2.0541061E-1,1.0516094E-1,4.5855728E-1,1.746498E-1,-2.453777E-1,-5.529821E-2,-5.390374E-1,-2.0721115E-1,-2.6944068E-1,-2.871271E-1,-1.3497207E-1,-5.4598637E-2,-2.1896096E-1,-1.4930561E-1,-2.8934395E-1,-2.164813E-1,1.7549843E-1,1.09805994E-1,-2.1796449E-1,-2.0676152E-1,1.5375161E-1,6.251117E-1,-1.21397644E-1,-2.1963532E-1,-2.8674844E-1,-3.0052254E-1,-2.7441096E-1,2.1132405E-1,-1.1706636E-1,-7.723289E-2,-2.7365914E-1,-5.802955E-2,3.3195496E-2,1.4405441E-1,5.594293E-2,-2.4073275E-2,6.068187E-2,1.67579E-1,5.8923252E-2,-7.124609E-4,-7.8180104E-2,-2.3392244E-4,8.315043E-2,-2.5522431E-2,8.6034246E-2,8.18848E-2,1.7399654E-1,2.1585138E-1,9.085584E-2,8.908325E-2,-9.742793E-4,3.97091E-2,-8.319441E-2,9.2771195E-2,2.257123E-1,6.2759966E-2,-1.0177095E-1,-1.3503455E-1,-3.998732E-3,-3.7401322E-2,9.647513E-2,-1.8548158E-1,-2.7801972E-2],"categories":[],"categories_nodes":[],"categories_segments":[],"categories_sizes":[],"default_left":[0,0,0,0,0,0,0,0,0,0,0,0,0,0,0,0,0,0,0,0,0,0,0,0,0,0,0,0,0,0,0,0,0,0,0,0,0,0,0,0,0,0,0,0,0,0,0,0,0,0,0,0,0,0,0,0,0,0,0,0,0,0,0,0,0,0,0,0,0,0,0,0,0,0,0,0,0,0,0,0,0,0,0,0,0,0,0,0,0,0,0,0,0,0,0,0,0,0,0,0,0,0,0,0,0,0,0,0,0,0,0,0,0],"id":7,"left_children":[1,3,5,7,9,11,13,15,17,-1,19,21,23,25,27,29,31,33,35,37,39,41,43,45,47,49,51,53,55,57,59,61,63,65,67,69,71,73,75,77,79,81,83,85,87,89,91,93,95,97,99,101,103,105,107,109,111,-1,-1,-1,-1,-1,-1,-1,-1,-1,-1,-1,-1,-1,-1,-1,-1,-1,-1,-1,-1,-1,-1,-1,-1,-1,-1,-1,-1,-1,-1,-1,-1,-1,-1,-1,-1,-1,-1,-1,-1,-1,-1,-1,-1,-1,-1,-1,-1,-1,-1,-1,-1,-1,-1,-1,-1],"loss_changes":[2.5471223E4,2.0870312E2,8.253657E2,1.3260559E2,5.940039E1,6.2469366E2,5.635773E2,1.8306091E1,2.6864834E1,0E0,1.128147E2,6.430428E2,5.6570526E2,3.4416016E2,3.3081464E2,2.9905396E0,9.487068E0,2.617944E1,1.7552982E1,5.960205E0,4.994673E1,2.8493985E2,3.850797E2,5.0980417E2,1.4912988E2,2.6440796E2,2.9804388E2,9.448604E1,2.6142517E2,4.0658875E0,8.4628296E-1,1.2883923E1,3.2448616E0,1.4407349E1,2.8462145E1,1.808522E1,1.7574127E1,6.8631897E0,1.1384277E0,5.144596E1,1.6267609E1,2.8083234E2,5.3298203E1,9.7480965E1,2.0549646E2,4.1234186E2,1.3508546E2,9.068038E1,6.5543396E1,4.3033643E2,2.2979071E2,2.2361633E2,1.1755792E2,1.0922821E2,2.7872326E1,1.03052284E2,5.510324E1,0E0,0E0,0E0,0E0,0E0,0E0,0E0,0E0,0E0,0E0,0E0,0E0,0E0,0E0,0E0,0E0,0E0,0E0,0E0,0E0,0E0,0E0,0E0,0E0,0E0,0E0,0E0,0E0,0E0,0E0,0E0,0E0,0E0,0E0,0E0,0E0,0E0,0E0,0E0,0E0,0E0,0E0,0E0,0E0,0E0,0E0,0E0,0E0,0E0,0E0,0E0,0E0,0E0,0E0,0E0,0E0],"parents":[2147483647,0,0,1,1,2,2,3,3,4,4,5,5,6,6,7,7,8,8,10,10,11,11,12,12,13,13,14,14,15,15,16,16,17,17,18,18,19,19,20,20,21,21,22,22,23,23,24,24,25,25,26,26,27,27,28,28,29,29,30,30,31,31,32,32,33,33,34,34,35,35,36,36,37,37,38,38,39,39,40,40,41,41,42,42,43,43,44,44,45,45,46,46,47,47,48,48,49,49,50,50,51,51,52,52,53,53,54,54,55,55,56,56],"right_children":[2,4,6,8,10,12,14,16,18,-1,20,22,24,26,28,30,32,34,36,38,40,42,44,46,48,50,52,54,56,58,60,62,64,66,68,70,72,74,76,78,80,82,84,86,88,90,92,94,96,98,100,102,104,106,108,110,112,-1,-1,-1,-1,-1,-1,-1,-1,-1,-1,-1,-1,-1,-1,-1,-1,-1,-1,-1,-1,-1,-1,-1,-1,-1,-1,-1,-1,-1,-1,-1,-1,-1,-1,-1,-1,-1,-1,-1,-1,-1,-1,-1,-1,-1,-1,-1,-1,-1,-1,-1,-1,-1,-1,-1,-1],"split_conditions":[1.385E1,2E0,9.5E1,1.3E1,1E0,7.4E1,7.5507183E3,4E0,1E0,-3.0721262E-1,1.8E1,1.3E1,1E0,1E0,3.8098927E1,-1.75E2,6E0,1E0,1E0,1E0,1E0,3.26E-1,1.5245E4,1E0,3E0,9.9E1,1E0,7.4911E4,2.0673256E4,3.9678372E3,2.53E-1,4.3424917E3,1E0,3.9E1,1E0,2.8606213E3,2E0,-3.9289E-1,6E0,8.8E1,7E0,8E0,4E0,3.9E1,8.58E1,2E0,3E0,1E0,6.3935E-2,1E0,1E0,1E0,1.7E1,1E0,1E0,2.126E1,4E0,-2.0721115E-1,-2.6944068E-1,-2.871271E-1,-1.3497207E-1,-5.4598637E-2,-2.1896096E-1,-1.4930561E-1,-2.8934395E-1,-2.164813E-1,1.7549843E-1,1.09805994E-1,-2.1796449E-1,-2.0676152E-1,1.5375161E-1,6.251117E-1,-1.21397644E-1,-2.1963532E-1,-2.8674844E-1,-3.0052254E-1,-2.7441096E-1,2.1132405E-1,-1.1706636E-1,-7.723289E-2,-2.7365914E-1,-5.802955E-2,3.3195496E-2,1.4405441E-1,5.594293E-2,-2.4073275E-2,6.068187E-2,1.67579E-1,5.8923252E-2,-7.124609E-4,-7.8180104E-2,-2.3392244E-4,8.315043E-2,-2.5522431E-2,8.6034246E-2,8.18848E-2,1.7399654E-1,2.1585138E-1,9.085584E-2,8.908325E-2,-9.742793E-4,3.97091E-2,-8.319441E-2,9.2771195E-2,2.257123E-1,6.2759966E-2,-1.0177095E-1,-1.3503455E-1,-3.998732E-3,-3.7401322E-2,9.647513E-2,-1.8548158E-1,-2.7801972E-2],"split_indices":[11,2,10,13,33,11,19,13,76,0,13,4,85,27,8,23,5,49,69,69,69,18,21,84,6,3,83,22,19,19,18,19,75,17,73,19,7,9,13,10,7,13,13,4,25,6,13,51,9,63,57,80,13,89,47,26,6,0,0,0,0,0,0,0,0,0,0,0,0,0,0,0,0,0,0,0,0,0,0,0,0,0,0,0,0,0,0,0,0,0,0,0,0,0,0,0,0,0,0,0,0,0,0,0,0,0,0,0,0,0,0,0,0],"split_type":[0,0,0,0,0,0,0,0,0,0,0,0,0,0,0,0,0,0,0,0,0,0,0,0,0,0,0,0,0,0,0,0,0,0,0,0,0,0,0,0,0,0,0,0,0,0,0,0,0,0,0,0,0,0,0,0,0,0,0,0,0,0,0,0,0,0,0,0,0,0,0,0,0,0,0,0,0,0,0,0,0,0,0,0,0,0,0,0,0,0,0,0,0,0,0,0,0,0,0,0,0,0,0,0,0,0,0,0,0,0,0,0,0],"sum_hessian":[1.5564398E5,2.6314547E4,1.2932944E5,1.5218092E3,2.4792736E4,6.8049945E4,6.1279492E4,1.0960762E3,4.2573306E2,2.128343E4,3.509308E3,2.7712785E4,4.033716E4,4.9049035E4,1.223046E4,8.3542957E2,2.6064664E2,2.4804622E2,1.7768683E2,2.9090645E3,6.0024365E2,1.51044375E4,1.2608349E4,3.41791E4,6.158056E3,2.4877223E4,2.417181E4,6.7328384E3,5.497621E3,4.5412143E2,3.8130814E2,1.7391948E2,8.672715E1,1.4096523E2,1.0708099E2,1.1777686E2,5.9909977E1,6.4589624E2,2.2631682E3,3.2715067E2,2.73093E2,1.2456856E4,2.647581E3,5.1659727E3,7.4423755E3,2.7173498E4,7.0056045E3,2.81874E3,3.3393164E3,1.2846857E4,1.2030365E4,2.1487988E4,2.6838232E3,6.147038E3,5.858005E2,3.9389775E3,1.5586437E3,1.8381789E2,2.7030353E2,3.75391E2,5.917158E0,9.577939E1,7.814008E1,2.4330042E1,6.2397106E1,1.3268439E2,8.280839E0,7.2873726E1,3.420727E1,1.3333692E1,1.0444317E2,1.9965134E0,5.7913464E1,2.4389615E2,4.020001E2,1.9375583E3,3.256099E2,4.9823734E1,2.7732693E2,4.671578E1,2.263772E2,7.211384E3,5.2454727E3,9.842118E2,1.6633691E3,1.9791207E3,3.186852E3,5.198113E3,2.244263E3,9.516639E3,1.765686E4,3.6503923E3,3.355212E3,1.7825675E3,1.0361725E3,2.3503562E3,9.8896014E2,3.3559375E3,9.49092E3,8.36181E3,3.668556E3,2.0061791E4,1.4261965E3,1.7808398E3,9.029834E2,5.760346E3,3.86692E2,3.107153E2,2.7508514E2,3.327206E3,6.1177136E2,1.3233496E3,2.3529413E2],"tree_param":{"num_deleted":"0","num_feature":"95","num_nodes":"113","size_leaf_vector":"1"}},{"base_weights":[-6.9389924E-2,-9.6056294E-1,6.862651E-2,-3.0470324E-1,-7.380198E-1,3.1912114E-2,2.1125273E-1,-8.774827E-1,-3.2067373E-1,5.0083984E-2,-2.463857E-1,1.9053599E-1,7.413046E-1,-7.133946E-1,-9.40466E-1,-1.18139565E-1,-6.070278E-1,6.615219E-2,-2.9096085E-1,-7.617946E-2,-4.1366705E-1,9.242891E-2,2.9501075E-1,7.7703005E-1,-3.5326034E-1,-8.134149E-1,-4.494944E-1,-8.258601E-1,-9.727131E-1,-7.4895036E-1,6.4437345E-2,-6.7651E-1,5.780278E-1,8.892069E-2,-2.0745493E-1,-4.473811E-1,3.942995E-2,-2.9129434E-1,1.3562426E-1,-3.0633727E-1,-6.4140373E-1,4.8376054E-2,4.7993997E-1,3.2566744E-1,-3.0964844E-2,7.9621357E-1,-1.1607949E0,-1.0140077E0,3.1486038E-2,-1.9187658E-1,-2.5575915E-1,-9.114622E-2,-2.3330389E-1,-1.9258536E-1,-2.820956E-1,-2.1576567E-1,-2.93185E-1,-2.3682763E-1,3.501181E-1,1.7345093E-1,-4.7976058E-2,-2.2567435E-1,-7.652443E-2,3.3083734E-1,-4.534898E-2,3.3212308E-2,-5.106552E-2,-9.981415E-2,1.9537712E-2,-8.212613E-2,-1.8370259E-1,-9.382218E-2,9.198107E-2,-3.461415E-2,-1.5486497E-1,1.5781246E-1,-2.0640021E-2,-6.1857365E-2,-1.593882E-1,-2.1958794E-1,-9.2663854E-2,1.6998134E-3,8.630901E-2,1.9026953E-1,8.654115E-2,1.0418003E-1,-4.304731E-2,1.0391042E-1,-4.4349942E-2,2.5533012E-1,8.0396086E-2,-1.2588336E-1,-4.9471205E-1,-3.5906032E-1,-6.1796203E-2,7.959475E-2,-3.4555328E-1],"categories":[],"categories_nodes":[],"categories_segments":[],"categories_sizes":[],"default_left":[0,0,0,0,0,0,0,0,0,0,0,0,0,0,0,0,0,0,0,0,0,0,0,0,0,0,0,0,0,0,0,0,0,0,0,0,0,0,0,0,0,0,0,0,0,0,0,0,0,0,0,0,0,0,0,0,0,0,0,0,0,0,0,0,0,0,0,0,0,0,0,0,0,0,0,0,0,0,0,0,0,0,0,0,0,0,0,0,0,0,0,0,0,0,0,0,0],"id":8,"left_children":[1,3,5,-1,7,9,11,13,15,17,19,21,23,25,27,29,31,33,35,37,39,41,43,45,47,49,51,53,55,57,59,61,63,65,67,69,71,73,75,77,79,81,83,85,87,89,91,93,95,-1,-1,-1,-1,-1,-1,-1,-1,-1,-1,-1,-1,-1,-1,-1,-1,-1,-1,-1,-1,-1,-1,-1,-1,-1,-1,-1,-1,-1,-1,-1,-1,-1,-1,-1,-1,-1,-1,-1,-1,-1,-1,-1,-1,-1,-1,-1,-1],"loss_changes":[1.8247115E4,2.4326562E2,6.7266846E2,0E0,2.297832E2,5.166723E2,2.8863672E2,2.9941895E1,5.7437798E1,5.255615E2,1.7826776E2,2.593958E2,3.8941833E1,2.1430298E1,7.095825E0,6.708366E1,3.4196243E1,5.705769E2,2.2303061E2,1.4151843E2,7.6994446E1,2.2282756E2,1.22497314E2,3.6533325E1,8.152218E0,3.5177612E0,1.0720551E1,9.415314E0,1.2229004E0,1.1059395E1,5.2226734E1,1.2201157E1,9.073978E0,4.7739087E2,2.402655E2,8.371796E1,1.3064563E2,6.0907883E1,1.2496539E2,4.828929E1,3.0207306E1,1.19822975E2,3.9180267E1,1.135791E2,4.6554382E1,2.7288757E1,2.8532295E0,1.4947329E0,6.159716E0,0E0,0E0,0E0,0E0,0E0,0E0,0E0,0E0,0E0,0E0,0E0,0E0,0E0,0E0,0E0,0E0,0E0,0E0,0E0,0E0,0E0,0E0,0E0,0E0,0E0,0E0,0E0,0E0,0E0,0E0,0E0,0E0,0E0,0E0,0E0,0E0,0E0,0E0,0E0,0E0,0E0,0E0,0E0,0E0,0E0,0E0,0E0,0E0],"parents":[2147483647,0,0,1,1,2,2,4,4,5,5,6,6,7,7,8,8,9,9,10,10,11,11,12,12,13,13,14,14,15,15,16,16,17,17,18,18,19,19,20,20,21,21,22,22,23,23,24,24,25,25,26,26,27,27,28,28,29,29,30,30,31,31,32,32,33,33,34,34,35,35,36,36,37,37,38,38,39,39,40,40,41,41,42,42,43,43,44,44,45,45,46,46,47,47,48,48],"right_children":[2,4,6,-1,8,10,12,14,16,18,20,22,24,26,28,30,32,34,36,38,40,42,44,46,48,50,52,54,56,58,60,62,64,66,68,70,72,74,76,78,80,82,84,86,88,90,92,94,96,-1,-1,-1,-1,-1,-1,-1,-1,-1,-1,-1,-1,-1,-1,-1,-1,-1,-1,-1,-1,-1,-1,-1,-1,-1,-1,-1,-1,-1,-1,-1,-1,-1,-1,-1,-1,-1,-1,-1,-1,-1,-1,-1,-1,-1,-1,-1,-1],"split_conditions":[1.385E1,1E0,4.24E-1,-3.0470324E-1,1.4E1,1E0,1.64E2,2E0,1E0,1E0,1E0,3E1,-2.0371E-1,4E0,1E0,7.5129E4,1.06E2,1E0,-8.5442975E-2,1E0,1.07E2,1E0,1E0,2.1E1,1.652E1,1E0,6E0,-3.958561E-1,3.7980064E1,1.53E2,9.1E1,3.948532E1,2.602E3,1E0,3.37482E5,6.5E1,1E0,9.733E1,1E0,1E0,1E0,1E0,1E0,1E0,5.4E1,1E0,1E0,3.8839054E1,1E0,-1.9187658E-1,-2.5575915E-1,-9.114622E-2,-2.3330389E-1,-1.9258536E-1,-2.820956E-1,-2.1576567E-1,-2.93185E-1,-2.3682763E-1,3.501181E-1,1.7345093E-1,-4.7976058E-2,-2.2567435E-1,-7.652443E-2,3.3083734E-1,-4.534898E-2,3.3212308E-2,-5.106552E-2,-9.981415E-2,1.9537712E-2,-8.212613E-2,-1.8370259E-1,-9.382218E-2,9.198107E-2,-3.461415E-2,-1.5486497E-1,1.5781246E-1,-2.0640021E-2,-6.1857365E-2,-1.593882E-1,-2.1958794E-1,-9.2663854E-2,1.6998134E-3,8.630901E-2,1.9026953E-1,8.654115E-2,1.0418003E-1,-4.304731E-2,1.0391042E-1,-4.4349942E-2,2.5533012E-1,8.0396086E-2,-1.2588336E-1,-4.9471205E-1,-3.5906032E-1,-6.1796203E-2,7.959475E-2,-3.4555328E-1],"split_indices":[11,33,18,0,13,80,13,2,69,78,27,17,9,13,69,20,14,81,9,59,11,85,89,6,24,69,5,9,8,14,10,8,16,89,20,11,59,11,63,37,49,84,75,78,11,78,0,8,80,0,0,0,0,0,0,0,0,0,0,0,0,0,0,0,0,0,0,0,0,0,0,0,0,0,0,0,0,0,0,0,0,0,0,0,0,0,0,0,0,0,0,0,0,0,0,0,0],"split_type":[0,0,0,0,0,0,0,0,0,0,0,0,0,0,0,0,0,0,0,0,0,0,0,0,0,0,0,0,0,0,0,0,0,0,0,0,0,0,0,0,0,0,0,0,0,0,0,0,0,0,0,0,0,0,0,0,0,0,0,0,0,0,0,0,0,0,0,0,0,0,0,0,0,0,0,0,0,0,0,0,0,0,0,0,0,0,0,0,0,0,0,0,0,0,0,0,0],"sum_hessian":[1.4835319E5,1.989367E4,1.28459516E5,1.5941961E4,3.951709E3,1.02162414E5,2.6297102E4,2.9611057E3,9.9060345E2,9.590123E4,6.261194E3,2.5309266E4,9.87837E2,8.247469E2,2.1363586E3,5.810486E2,4.0955487E2,9.1586945E4,4.3142812E3,3.1041865E3,3.157007E3,1.3053372E4,1.2255893E4,9.56895E2,3.0941961E1,5.9656256E2,2.2818431E2,4.7496146E2,1.6613972E3,1.2972864E2,4.5131992E2,3.8727716E2,2.2277702E1,8.455157E4,7.0353706E3,2.9277927E3,1.3864886E3,1.5398691E3,1.5643174E3,2.1473364E3,1.0096707E3,1.172193E4,1.3314423E3,1.1202356E4,1.0535356E3,9.4809845E2,8.796591E0,1.0784901E1,2.015706E1,1.12770515E2,4.8379205E2,1.5936966E2,6.881466E1,1.8473808E2,2.902234E2,3.2226696E1,1.6291705E3,1.2762068E2,2.1079576E0,1.3670856E2,3.1461136E2,3.2761435E2,5.9662815E1,1.2656841E1,9.620861E0,7.799477E4,6.556799E3,4.820149E3,2.2152217E3,1.427722E3,1.5000707E3,5.980319E2,7.8845667E2,8.649199E2,6.749493E2,5.370555E2,1.027262E3,1.487188E3,6.601485E2,7.9261694E2,2.1705376E2,9.947659E3,1.7742709E3,7.360217E2,5.954206E2,1.0709564E4,4.9279208E2,2.4867488E2,8.048608E2,8.58303E2,8.979544E1,4.231843E0,4.564748E0,8.402198E0,2.3827033E0,1.7478954E1,2.6781073E0],"tree_param":{"num_deleted":"0","num_feature":"95","num_nodes":"97","size_leaf_vector":"1"}},{"base_weights":[-5.5799264E-2,-9.366153E-1,4.8349965E-2,-3.0267125E-1,-6.68969E-1,2.5800642E-2,2.1592411E-1,-8.6410344E-1,-3.2102516E-1,3.629899E-1,1.3133275E-2,1.5892419E-1,4.8149475E-1,-6.9485253E-1,-9.3113273E-1,-2.1818824E-1,-7.53328E-1,2.4181157E-1,6.300177E-1,-1.3023233E-2,1.9525912E-1,2.1661778E-1,-8.120039E-3,5.681798E-1,2.302304E-1,-5.342096E-1,-8.342238E-1,-8.144813E-1,-9.613432E-1,2.2837952E-2,-5.1366735E-1,-1.352206E-1,-8.180178E-1,-2.5034297E-1,3.0251536E-1,9.0221626E-1,4.236242E-1,4.595281E-2,-2.0174108E-1,4.1118863E-1,-3.7336983E-2,2.3228003E-1,-6.1524135E-1,1.3713883E-1,-2.6143044E-1,6.034251E-1,-9.517774E-3,1.0269376E-1,3.8824436E-1,-9.132898E-2,-2.3899962E-1,-1.857956E-1,-2.6843742E-1,-2.735472E-1,-1.637263E-1,-2.886468E-1,-7.6464363E-3,9.392777E-2,-7.6922044E-2,-6.4227134E-2,-2.0886327E-1,-1.8068573E-1,5.3473634E-1,-2.5546613E-1,1.2720428E-1,1.2669538E-1,-1.1581119E-1,1.2459042E-1,1.1962282E-2,3.2242164E-1,1.8687904E-1,-2.2154629E-1,1.3714778E-1,2.0045519E-2,-8.309557E-2,-7.1784887E-3,-8.076087E-2,1.738585E-1,-2.92225E-3,3.35984E-2,-7.164115E-2,1.5049817E-2,8.897309E-2,-5.2495706E-1,-4.3266654E-2,-2.3568276E-2,7.546453E-2,-1.3825288E-1,4.447039E-3,-1.9235555E-2,1.8776403E-1,-1.6071017E-1,1.4873043E-1,4.155236E-3,1.917028E-1,1.526915E-1,4.5740232E-2],"categories":[],"categories_nodes":[],"categories_segments":[],"categories_sizes":[],"default_left":[0,0,0,0,0,0,0,0,0,0,0,0,0,0,0,0,0,0,0,0,0,0,0,0,0,0,0,0,0,0,0,0,0,0,0,0,0,0,0,0,0,0,0,0,0,0,0,0,0,0,0,0,0,0,0,0,0,0,0,0,0,0,0,0,0,0,0,0,0,0,0,0,0,0,0,0,0,0,0,0,0,0,0,0,0,0,0,0,0,0,0,0,0,0,0,0,0],"id":9,"left_children":[1,3,5,-1,7,9,11,13,15,17,19,21,23,25,27,29,31,33,35,37,39,41,43,45,47,49,51,53,55,57,59,61,63,65,67,69,71,73,75,77,79,81,83,85,87,89,91,93,95,-1,-1,-1,-1,-1,-1,-1,-1,-1,-1,-1,-1,-1,-1,-1,-1,-1,-1,-1,-1,-1,-1,-1,-1,-1,-1,-1,-1,-1,-1,-1,-1,-1,-1,-1,-1,-1,-1,-1,-1,-1,-1,-1,-1,-1,-1,-1,-1],"loss_changes":[1.3090618E4,2.9126074E2,4.8219254E2,0E0,2.1778137E2,4.804148E2,2.2902777E2,2.2690063E1,5.120893E1,1.3162299E2,5.164185E2,1.20102356E2,5.8109375E1,1.2708038E1,4.399536E0,6.659523E1,8.752449E0,8.381235E1,7.0999054E1,1.0550286E3,6.83757E2,1.20826294E2,1.17786705E2,4.0470886E1,1.3816029E1,1.6384468E1,3.5173035E0,7.5867767E0,8.5961914E-1,4.1892124E1,2.2822197E1,2.0956242E1,8.710785E0,2.830338E1,7.390701E1,2.5689331E1,2.8573532E1,4.866767E2,2.7073608E2,5.002633E2,1.9723201E2,1.0645096E2,9.137582E1,5.0227394E1,6.427502E1,2.8117432E1,3.0910534E1,1.8184359E1,8.653191E0,0E0,0E0,0E0,0E0,0E0,0E0,0E0,0E0,0E0,0E0,0E0,0E0,0E0,0E0,0E0,0E0,0E0,0E0,0E0,0E0,0E0,0E0,0E0,0E0,0E0,0E0,0E0,0E0,0E0,0E0,0E0,0E0,0E0,0E0,0E0,0E0,0E0,0E0,0E0,0E0,0E0,0E0,0E0,0E0,0E0,0E0,0E0,0E0],"parents":[2147483647,0,0,1,1,2,2,4,4,5,5,6,6,7,7,8,8,9,9,10,10,11,11,12,12,13,13,14,14,15,15,16,16,17,17,18,18,19,19,20,20,21,21,22,22,23,23,24,24,25,25,26,26,27,27,28,28,29,29,30,30,31,31,32,32,33,33,34,34,35,35,36,36,37,37,38,38,39,39,40,40,41,41,42,42,43,43,44,44,45,45,46,46,47,47,48,48],"right_children":[2,4,6,-1,8,10,12,14,16,18,20,22,24,26,28,30,32,34,36,38,40,42,44,46,48,50,52,54,56,58,60,62,64,66,68,70,72,74,76,78,80,82,84,86,88,90,92,94,96,-1,-1,-1,-1,-1,-1,-1,-1,-1,-1,-1,-1,-1,-1,-1,-1,-1,-1,-1,-1,-1,-1,-1,-1,-1,-1,-1,-1,-1,-1,-1,-1,-1,-1,-1,-1,-1,-1,-1,-1,-1,-1,-1,-1,-1,-1,-1,-1],"split_conditions":[1.385E1,1E0,1E0,-3.0267125E-1,8E0,-1.036E4,1.5E1,2E0,1.2E1,3E0,6.83605E5,3.90198E1,1E0,4.1241396E3,1E0,1E0,-4.9085E-1,8E0,6.8E1,3.8876E1,8.5291794E1,5.9869E2,1.21E2,2.5E1,6E0,-1.015E3,1E0,9.7E1,7.71E-1,-3.8737E-1,1E0,-4.9354047E-1,1.22E2,1.94E1,9.564E1,1E0,3.940385E1,1E0,5.7E1,1.03E2,8.1E1,1.3E1,1E0,2E0,1E0,7E0,1.426E1,1.954E2,5.276E3,-9.132898E-2,-2.3899962E-1,-1.857956E-1,-2.6843742E-1,-2.735472E-1,-1.637263E-1,-2.886468E-1,-7.6464363E-3,9.392777E-2,-7.6922044E-2,-6.4227134E-2,-2.0886327E-1,-1.8068573E-1,5.3473634E-1,-2.5546613E-1,1.2720428E-1,1.2669538E-1,-1.1581119E-1,1.2459042E-1,1.1962282E-2,3.2242164E-1,1.8687904E-1,-2.2154629E-1,1.3714778E-1,2.0045519E-2,-8.309557E-2,-7.1784887E-3,-8.076087E-2,1.738585E-1,-2.92225E-3,3.35984E-2,-7.164115E-2,1.5049817E-2,8.897309E-2,-5.2495706E-1,-4.3266654E-2,-2.3568276E-2,7.546453E-2,-1.3825288E-1,4.447039E-3,-1.9235555E-2,1.8776403E-1,-1.6071017E-1,1.4873043E-1,4.155236E-3,1.917028E-1,1.526915E-1,4.5740232E-2],"split_indices":[11,33,85,0,13,23,13,2,4,6,22,8,55,19,69,69,9,7,11,8,25,11,11,5,4,23,69,10,18,9,27,9,14,11,11,37,8,33,11,11,11,7,65,6,51,7,24,11,16,0,0,0,0,0,0,0,0,0,0,0,0,0,0,0,0,0,0,0,0,0,0,0,0,0,0,0,0,0,0,0,0,0,0,0,0,0,0,0,0,0,0,0,0,0,0,0,0],"split_type":[0,0,0,0,0,0,0,0,0,0,0,0,0,0,0,0,0,0,0,0,0,0,0,0,0,0,0,0,0,0,0,0,0,0,0,0,0,0,0,0,0,0,0,0,0,0,0,0,0,0,0,0,0,0,0,0,0,0,0,0,0,0,0,0,0,0,0,0,0,0,0,0,0,0,0,0,0,0,0,0,0,0,0,0,0,0,0,0,0,0,0,0,0,0,0,0,0],"sum_hessian":[1.4269683E5,1.5087774E4,1.2760906E5,1.1877108E4,3.2106658E3,1.1247519E5,1.5133875E4,2.056085E3,1.1545808E3,4.0714219E3,1.08403766E5,1.2460955E4,2.67292E3,5.865061E2,1.4695789E3,9.339225E2,2.2065834E2,2.8018403E3,1.2695815E3,9.4791016E4,1.3612746E4,9.261819E3,3.1991355E3,1.9863702E3,6.865498E2,2.7470602E2,3.1180008E2,3.080537E2,1.1615251E3,5.1486395E2,4.1905856E2,2.1198456E1,1.9945988E2,3.0729868E2,2.4945417E3,5.4605493E2,7.235267E2,7.2221805E4,2.2569213E4,7.0588906E3,6.553856E3,9.091368E3,1.7045166E2,2.0334996E3,1.1656359E3,1.8721084E3,1.1426174E2,3.8082626E2,3.0572357E2,1.4762257E2,1.2708345E2,7.102275E1,2.4077734E2,2.2438148E2,8.367223E1,1.1604893E3,1.0358499E0,2.5239572E2,2.624682E2,1.5948932E2,2.5956924E2,1.7598202E1,3.6002543E0,1.94522E2,4.9378858E0,5.1230038E1,2.5606866E2,1.7447233E3,7.4981836E2,3.3578403E2,2.102709E2,1.9703627E1,7.03823E2,6.7839375E4,4.3824253E3,6.207945E3,1.6361269E4,5.0420703E3,2.0168201E3,3.7641956E3,2.7896606E3,2.3727092E3,6.7186587E3,4.9206192E1,1.21245476E2,7.048808E2,1.3286189E3,6.765811E2,4.8905475E2,6.0864647E1,1.8112438E3,5.5943947E1,5.83178E1,3.2758606E2,5.324021E1,2.0142644E2,1.0429714E2],"tree_param":{"num_deleted":"0","num_feature":"95","num_nodes":"97","size_leaf_vector":"1"}},{"base_weights":[-4.406359E-2,-9.085072E-1,3.4490578E-2,-1.0030174E0,-5.942329E-1,5.7059668E-2,-1.23898946E-1,-3.0119148E-1,-8.8871807E-1,-8.168977E-1,-2.568833E-1,1.1306973E-1,-6.1182072E-3,-3.939578E-1,-3.521931E-2,-9.433701E-1,-3.2332522E-1,-6.200358E-1,-9.0083265E-1,-6.660864E-1,-1.4604387E-1,2.6129812E-1,4.7437284E-2,-8.619256E-2,9.3762554E-2,-3.0165726E-1,-9.520235E-1,1.0943665E-1,-1.7435952E-1,-2.981183E-1,-7.052429E-1,3.4460992E-1,-2.5969192E-1,-7.479852E-1,-3.9351988E-1,-7.5683254E-1,-9.399098E-1,-6.8916386E-1,4.1578236E-1,-4.4275917E-2,-7.291263E-1,1.4897153E-1,5.8550215E-1,2.2169597E-1,2.3696098E-2,-2.4414416E-2,-2.5749803E-1,6.444012E-3,2.1250567E-1,-5.0201595E-1,-1.0650857E-1,-1.4701792E0,-7.69491E-1,1.7120141E-1,-1.9766162E-1,-1.1688179E-1,-4.602803E-1,-2.5992274E-1,4.2747498E-2,-2.4506845E-1,-1.6359109E-1,1.8098372E-1,-1.4074825E-1,-1.5966903E-1,-2.761826E-1,-2.8506774E-1,-2.2331479E-1,2.9795033E-1,-2.1135926E-1,-1.4524533E-1,2.7579086E-2,-9.198313E-2,-2.481255E-1,1.4662812E-2,9.41444E-2,-5.3311195E-2,2.580899E-1,4.7879104E-2,2.9955244E-1,-1.7274555E-2,3.221879E-2,-5.215178E-2,1.2195964E-2,7.903677E-2,-9.920835E-2,-1.4439006E-2,1.2518597E-1,5.3098854E-3,8.909563E-2,-1.3261642E-1,-3.807296E-1,-4.9287777E-2,1.1065068E-1,-9.1086194E-2,-4.8848584E-1,-3.3444312E-1,-1.9828416E-1,7.5562105E-2,-1.9299295E-2,-6.84951E-2,2.2407956E-1,-2.4046777E-2,-1.9378713E-1,-1.818767E-1,-2.0118074E-2],"categories":[],"categories_nodes":[],"categories_segments":[],"categories_sizes":[],"default_left":[0,0,0,0,0,0,0,0,0,0,0,0,0,0,0,0,0,0,0,0,0,0,0,0,0,0,0,0,0,0,0,0,0,0,0,0,0,0,0,0,0,0,0,0,0,0,0,0,0,0,0,0,0,0,0,0,0,0,0,0,0,0,0,0,0,0,0,0,0,0,0,0,0,0,0,0,0,0,0,0,0,0,0,0,0,0,0,0,0,0,0,0,0,0,0,0,0,0,0,0,0,0,0,0,0],"id":10,"left_children":[1,3,5,7,9,11,13,-1,15,17,19,21,23,25,27,29,31,33,35,37,39,41,43,45,47,49,51,53,55,-1,57,-1,-1,59,61,63,65,67,-1,69,71,73,75,77,79,81,83,85,87,89,91,93,95,97,99,101,103,-1,-1,-1,-1,-1,-1,-1,-1,-1,-1,-1,-1,-1,-1,-1,-1,-1,-1,-1,-1,-1,-1,-1,-1,-1,-1,-1,-1,-1,-1,-1,-1,-1,-1,-1,-1,-1,-1,-1,-1,-1,-1,-1,-1,-1,-1,-1,-1],"loss_changes":[9.378423E3,3.4112305E2,4.5258386E2,7.2265625E-2,1.9977576E2,3.92133E2,3.7814783E2,0E0,2.2262955E0,2.5934204E1,4.7981194E1,5.714461E2,4.1651144E2,2.0077008E2,2.3929817E2,1.8868256E-1,7.973126E0,1.368895E1,5.6015625E0,1.1640869E1,4.95384E1,6.5638696E2,1.6843454E2,3.0589044E2,2.4026688E2,1.3096158E2,5.1218292E1,1.1060089E2,9.953685E1,0E0,2.3631697E0,0E0,0E0,3.8451996E0,1.3573231E1,8.507187E0,1.064148E0,6.4856644E0,0E0,4.272153E1,4.88163E0,2.2091183E2,9.72916E2,2.3533208E2,2.437808E2,2.0656342E2,2.9221637E2,2.9944485E2,1.615958E2,7.547168E1,4.672025E1,2.5897186E1,1.4683533E1,9.223996E1,2.844806E1,9.801583E1,5.8162125E1,0E0,0E0,0E0,0E0,0E0,0E0,0E0,0E0,0E0,0E0,0E0,0E0,0E0,0E0,0E0,0E0,0E0,0E0,0E0,0E0,0E0,0E0,0E0,0E0,0E0,0E0,0E0,0E0,0E0,0E0,0E0,0E0,0E0,0E0,0E0,0E0,0E0,0E0,0E0,0E0,0E0,0E0,0E0,0E0,0E0,0E0,0E0,0E0],"parents":[2147483647,0,0,1,1,2,2,3,3,4,4,5,5,6,6,8,8,9,9,10,10,11,11,12,12,13,13,14,14,15,15,16,16,17,17,18,18,19,19,20,20,21,21,22,22,23,23,24,24,25,25,26,26,27,27,28,28,30,30,33,33,34,34,35,35,36,36,37,37,39,39,40,40,41,41,42,42,43,43,44,44,45,45,46,46,47,47,48,48,49,49,50,50,51,51,52,52,53,53,54,54,55,55,56,56],"right_children":[2,4,6,8,10,12,14,-1,16,18,20,22,24,26,28,30,32,34,36,38,40,42,44,46,48,50,52,54,56,-1,58,-1,-1,60,62,64,66,68,-1,70,72,74,76,78,80,82,84,86,88,90,92,94,96,98,100,102,104,-1,-1,-1,-1,-1,-1,-1,-1,-1,-1,-1,-1,-1,-1,-1,-1,-1,-1,-1,-1,-1,-1,-1,-1,-1,-1,-1,-1,-1,-1,-1,-1,-1,-1,-1,-1,-1,-1,-1,-1,-1,-1,-1,-1,-1,-1,-1,-1],"split_conditions":[1.385E1,1E0,1.3E1,3.27E1,8E0,1E0,2E0,-3.0119148E-1,1E0,2E0,8.3058E4,1E0,4E0,1.41E2,9.1E1,1E0,4E0,2E0,1E0,1.59E2,1E0,1E0,1E0,1.14E2,6E0,1.2E1,1.6E1,1E0,1E0,-2.981183E-1,1E2,3.4460992E-1,-2.5969192E-1,3.947935E1,1.4763286E3,-3.9289E-1,6E0,5.099E3,4.1578236E-1,1E0,3.2081187E3,3.37482E5,1E0,3.5E1,-4.268028E-2,1.2E1,1E0,1E0,1.657E1,1E0,7.9E1,-1.1709085E-1,1.652E1,1E0,7.1E1,1E0,8.97E0,-2.5992274E-1,4.2747498E-2,-2.4506845E-1,-1.6359109E-1,1.8098372E-1,-1.4074825E-1,-1.5966903E-1,-2.761826E-1,-2.8506774E-1,-2.2331479E-1,2.9795033E-1,-2.1135926E-1,-1.4524533E-1,2.7579086E-2,-9.198313E-2,-2.481255E-1,1.4662812E-2,9.41444E-2,-5.3311195E-2,2.580899E-1,4.7879104E-2,2.9955244E-1,-1.7274555E-2,3.221879E-2,-5.215178E-2,1.2195964E-2,7.903677E-2,-9.920835E-2,-1.4439006E-2,1.2518597E-1,5.3098854E-3,8.909563E-2,-1.3261642E-1,-3.807296E-1,-4.9287777E-2,1.1065068E-1,-9.1086194E-2,-4.8848584E-1,-3.3444312E-1,-1.9828416E-1,7.5562105E-2,-1.9299295E-2,-6.84951E-2,2.2407956E-1,-2.4046777E-2,-1.9378713E-1,-1.818767E-1,-2.0118074E-2],"split_indices":[11,33,5,26,13,27,6,0,40,2,20,73,6,11,11,86,7,13,69,14,51,57,6,11,13,4,5,53,53,0,10,0,0,8,19,9,13,20,0,61,19,20,76,12,9,7,6,77,24,40,13,9,24,33,13,88,26,0,0,0,0,0,0,0,0,0,0,0,0,0,0,0,0,0,0,0,0,0,0,0,0,0,0,0,0,0,0,0,0,0,0,0,0,0,0,0,0,0,0,0,0,0,0,0,0],"split_type":[0,0,0,0,0,0,0,0,0,0,0,0,0,0,0,0,0,0,0,0,0,0,0,0,0,0,0,0,0,0,0,0,0,0,0,0,0,0,0,0,0,0,0,0,0,0,0,0,0,0,0,0,0,0,0,0,0,0,0,0,0,0,0,0,0,0,0,0,0,0,0,0,0,0,0,0,0,0,0,0,0,0,0,0,0,0,0,0,0,0,0,0,0,0,0,0,0,0,0,0,0,0,0,0,0],"sum_hessian":[1.3810814E5,1.1503887E4,1.2660425E5,8.842525E3,2.661362E3,1.1081477E5,1.5789477E4,8.761605E3,8.0919716E1,1.6023336E3,1.0590283E3,5.87391E4,5.207567E4,3.902285E3,1.1887191E4,7.317769E1,7.742029E0,4.8147205E2,1.1208616E3,2.2464862E2,8.3437976E2,1.8025719E4,4.0713383E4,2.8903717E4,2.3171957E4,3.349791E3,5.524938E2,5.8281826E3,6.059009E3,5.7784687E1,1.5392997E1,1.7833292E0,5.9587E0,3.0620663E2,1.7526538E2,2.4359102E2,8.772705E2,2.2280705E2,1.8415737E0,7.113079E2,1.23071785E2,1.3388485E4,4.6372334E3,4.88074E3,3.5832645E4,2.1243709E4,7.660008E3,1.3353457E4,9.8185E3,1.6520564E3,1.6977346E3,1.4208946E2,4.104043E2,4.8526436E3,9.7553925E2,5.046031E3,1.0129782E3,1.2915542E1,2.4774551E0,2.2625272E2,7.995393E1,1.1869759E1,1.6339563E2,1.04512436E2,1.3907858E2,8.29639E2,4.763156E1,1.4408145E0,2.2136623E2,1.6757462E2,5.4373334E2,2.3940685E1,9.9131096E1,8.331037E3,5.057448E3,1.2277384E3,3.4094949E3,4.520568E3,3.601723E2,1.8179496E4,1.7653146E4,6.4439043E3,1.4799804E4,9.433554E2,6.7166523E3,1.1788431E4,1.5650266E3,2.9703142E3,6.848186E3,1.5337433E3,1.1831317E2,1.5143062E3,1.8342845E2,1.73078E1,1.24781654E2,9.593328E1,3.14471E2,3.6145525E3,1.238091E3,9.456092E2,2.9930054E1,4.719572E3,3.2645862E2,7.3834143E2,2.7463672E2],"tree_param":{"num_deleted":"0","num_feature":"95","num_nodes":"105","size_leaf_vector":"1"}},{"base_weights":[-3.456314E-2,-8.7443227E-1,2.4376338E-2,-9.974618E-1,-5.1527137E-1,4.4479337E-2,-1.4163116E-1,-2.996204E-1,-8.5181403E-1,-7.61745E-1,-2.0058425E-1,1.053153E-2,1.9475572E-1,-1.899146E-1,2.3008706E-1,-9.3526715E-1,-3.1917787E-1,-5.4063845E-1,-8.645024E-1,-6.39411E-2,-5.4019E-1,-5.9692193E-2,8.196561E-2,1.4932922E-1,5.93203E-1,-2.4167842E-1,2.0153235E-1,-1.0694881E-1,3.3659726E-1,-2.957009E-1,-6.566882E-1,3.6913365E-1,-2.648904E-1,-3.482613E-1,-7.281951E-1,-6.913446E-1,-9.1429114E-1,-2.3224321E-1,4.9769104E-1,-7.8119975E-1,-1.8958907E-1,-2.608747E-1,-2.8937487E-2,1.4905918E-1,-5.2668996E-2,1.05165504E-1,4.806726E-1,6.720074E-1,2.4527152E-1,7.5240093E-1,-2.7248976E-1,-9.0650216E-2,4.0420827E-1,2.0068765E-1,-7.568406E-1,2.086431E-1,6.6013753E-1,-2.6724964E-1,1.3584208E-2,-2.7661294E-2,-2.050426E-1,-1.7872977E-1,-2.8043193E-1,-2.5306022E-1,-1.005562E-1,-2.7827507E-1,-2.0350443E-1,1.3497998E-2,-1.7484684E-1,2.885103E-1,-3.532357E-2,-1.8938977E-1,-2.810844E-1,-9.57278E-2,2.8731537E-1,-8.8701405E-2,4.2829752E-2,6.997084E-3,-4.9936052E-2,6.381769E-2,-1.5794724E-2,-2.7876038E-2,8.6375915E-2,1.6029634E-2,1.5319544E-1,1.9886795E-1,6.335834E-2,2.2439599E-1,1.3116427E-1,-9.772732E-2,9.578881E-2,1.1413882E-1,3.5663018E-1,-9.650084E-2,4.318577E-2,3.213349E-2,-1.0099604E-1,2.4154083E-1,6.414827E-2,1.134692E-2,2.559909E-1,-7.391935E-2,-4.033333E-1,1.1721225E-1,-1.1941551E-2,-3.208878E-1,2.0596085E-1],"categories":[],"categories_nodes":[],"categories_segments":[],"categories_sizes":[],"default_left":[0,0,0,0,0,0,0,0,0,0,0,0,0,0,0,0,0,0,0,0,0,0,0,0,0,0,0,0,0,0,0,0,0,0,0,0,0,0,0,0,0,0,0,0,0,0,0,0,0,0,0,0,0,0,0,0,0,0,0,0,0,0,0,0,0,0,0,0,0,0,0,0,0,0,0,0,0,0,0,0,0,0,0,0,0,0,0,0,0,0,0,0,0,0,0,0,0,0,0,0,0,0,0,0,0,0,0],"id":11,"left_children":[1,3,5,7,9,11,13,-1,15,17,19,21,23,25,27,29,31,33,35,37,39,41,43,45,47,49,51,53,55,-1,57,-1,-1,59,61,63,65,67,69,71,73,75,77,79,81,83,85,87,89,91,93,95,97,99,101,103,105,-1,-1,-1,-1,-1,-1,-1,-1,-1,-1,-1,-1,-1,-1,-1,-1,-1,-1,-1,-1,-1,-1,-1,-1,-1,-1,-1,-1,-1,-1,-1,-1,-1,-1,-1,-1,-1,-1,-1,-1,-1,-1,-1,-1,-1,-1,-1,-1,-1,-1],"loss_changes":[6.6732114E3,3.9010596E2,4.2039584E2,3.701172E-1,1.7495044E2,5.732236E2,2.4425906E2,0E0,2.5389175E0,2.8288574E1,4.6042545E1,4.5979703E2,3.7468353E2,2.4407855E2,5.620556E1,1.20334625E-1,9.967038E0,1.4332108E1,6.8029785E0,6.715032E1,2.3913193E1,2.8597815E2,4.104549E2,2.7195236E2,5.7926514E1,3.260089E2,8.33634E1,7.542526E1,4.9093643E1,0E0,1.9094386E0,0E0,0E0,1.7230223E1,5.0175858E0,1.0378807E1,1.461731E0,5.3127632E1,4.689954E1,3.3408356E0,1.7737597E1,8.612326E1,2.8814575E2,3.8945764E2,2.0721419E2,3.440614E2,1.0719525E2,3.0479187E1,1.6708942E1,5.149237E1,2.1136597E2,2.811285E1,6.325659E1,2.7212118E1,3.6012672E1,3.8629177E1,1.6102905E1,0E0,0E0,0E0,0E0,0E0,0E0,0E0,0E0,0E0,0E0,0E0,0E0,0E0,0E0,0E0,0E0,0E0,0E0,0E0,0E0,0E0,0E0,0E0,0E0,0E0,0E0,0E0,0E0,0E0,0E0,0E0,0E0,0E0,0E0,0E0,0E0,0E0,0E0,0E0,0E0,0E0,0E0,0E0,0E0,0E0,0E0,0E0,0E0,0E0,0E0],"parents":[2147483647,0,0,1,1,2,2,3,3,4,4,5,5,6,6,8,8,9,9,10,10,11,11,12,12,13,13,14,14,15,15,16,16,17,17,18,18,19,19,20,20,21,21,22,22,23,23,24,24,25,25,26,26,27,27,28,28,30,30,33,33,34,34,35,35,36,36,37,37,38,38,39,39,40,40,41,41,42,42,43,43,44,44,45,45,46,46,47,47,48,48,49,49,50,50,51,51,52,52,53,53,54,54,55,55,56,56],"right_children":[2,4,6,8,10,12,14,-1,16,18,20,22,24,26,28,30,32,34,36,38,40,42,44,46,48,50,52,54,56,-1,58,-1,-1,60,62,64,66,68,70,72,74,76,78,80,82,84,86,88,90,92,94,96,98,100,102,104,106,-1,-1,-1,-1,-1,-1,-1,-1,-1,-1,-1,-1,-1,-1,-1,-1,-1,-1,-1,-1,-1,-1,-1,-1,-1,-1,-1,-1,-1,-1,-1,-1,-1,-1,-1,-1,-1,-1,-1,-1,-1,-1,-1,-1,-1,-1,-1,-1,-1,-1],"split_conditions":[1.385E1,1E0,1.05E2,3.27E1,8E0,2.4E1,1E0,-2.996204E-1,4.03779E1,2E0,1.1E1,-1.29E-1,1E0,1E0,2E0,1E0,4E0,4.1241396E3,1E0,2E0,3E1,3.183E3,3.882715E1,1E0,1E0,1E0,1.3E1,6E0,3.1E1,-2.957009E-1,1E2,3.6913365E-1,-2.648904E-1,-1.015E3,1E0,9.6E1,6E0,2E0,-3.8737E-1,1.7E1,7.7E1,1.4E1,1.16E2,1E0,1.4E1,1E0,8E1,9.8E1,1.1E1,4.160952E3,1E0,1E0,3.8537384E1,2.682E1,1E0,1E0,6.1E3,-2.6724964E-1,1.3584208E-2,-2.7661294E-2,-2.050426E-1,-1.7872977E-1,-2.8043193E-1,-2.5306022E-1,-1.005562E-1,-2.7827507E-1,-2.0350443E-1,1.3497998E-2,-1.7484684E-1,2.885103E-1,-3.532357E-2,-1.8938977E-1,-2.810844E-1,-9.57278E-2,2.8731537E-1,-8.8701405E-2,4.2829752E-2,6.997084E-3,-4.9936052E-2,6.381769E-2,-1.5794724E-2,-2.7876038E-2,8.6375915E-2,1.6029634E-2,1.5319544E-1,1.9886795E-1,6.335834E-2,2.2439599E-1,1.3116427E-1,-9.772732E-2,9.578881E-2,1.1413882E-1,3.5663018E-1,-9.650084E-2,4.318577E-2,3.213349E-2,-1.0099604E-1,2.4154083E-1,6.414827E-2,1.134692E-2,2.559909E-1,-7.391935E-2,-4.033333E-1,1.1721225E-1,-1.1941551E-2,-3.208878E-1,2.0596085E-1],"split_indices":[11,33,15,26,13,13,84,0,8,2,5,9,83,83,6,86,7,19,69,5,13,21,8,86,53,6,13,5,13,0,10,0,0,23,51,10,13,2,9,5,14,12,11,75,12,84,11,11,7,19,85,63,8,24,69,63,20,0,0,0,0,0,0,0,0,0,0,0,0,0,0,0,0,0,0,0,0,0,0,0,0,0,0,0,0,0,0,0,0,0,0,0,0,0,0,0,0,0,0,0,0,0,0,0,0,0,0],"split_type":[0,0,0,0,0,0,0,0,0,0,0,0,0,0,0,0,0,0,0,0,0,0,0,0,0,0,0,0,0,0,0,0,0,0,0,0,0,0,0,0,0,0,0,0,0,0,0,0,0,0,0,0,0,0,0,0,0,0,0,0,0,0,0,0,0,0,0,0,0,0,0,0,0,0,0,0,0,0,0,0,0,0,0,0,0,0,0,0,0,0,0,0,0,0,0,0,0,0,0,0,0,0,0,0,0,0,0],"sum_hessian":[1.3480698E5,8.839076E3,1.2596791E5,6.5824873E3,2.2565889E3,1.1236195E5,1.3605956E4,6.5196533E3,6.2834015E1,1.2646509E3,9.919381E2,9.165739E4,2.0704562E4,1.2042247E4,1.5637095E3,5.3669224E1,9.164788E0,4.0324237E2,8.614085E2,7.081831E2,2.83755E2,4.6220348E4,4.543704E4,1.858687E4,2.117692E3,1.0636137E4,1.4061097E3,3.7549783E2,1.1882117E3,4.329735E1,1.0371875E1,2.129428E0,7.0353603E0,2.0047333E2,2.0276904E2,1.956953E2,6.657132E2,5.453475E2,1.6283565E2,1.6743132E2,1.1632369E2,6.1277925E3,4.0092555E4,3.0324885E4,1.5112155E4,1.6402014E4,2.1848557E3,1.7258632E3,3.918289E2,3.1905066E2,1.0317087E4,5.7611743E2,8.299923E2,2.5532632E2,1.2017151E2,8.526494E2,3.3556223E2,7.5758715E0,2.7960033E0,1.1437884E2,8.609449E1,1.2592645E2,7.684259E1,1.3614908E2,5.954622E1,6.2743384E2,3.8279366E1,3.0501492E2,2.4033255E2,9.251846E1,7.0317184E1,8.7892296E1,7.9539024E1,1.05173935E2,1.1149754E1,5.641705E3,4.860875E2,2.905241E4,1.1040145E4,2.3049555E4,7.2753296E3,1.3515595E4,1.59656E3,1.4547165E4,1.8548491E3,1.3025885E3,8.822673E2,1.3022639E3,4.235992E2,4.4574886E1,3.47254E2,1.7325127E2,1.457994E2,9.227584E3,1.089502E3,3.1968634E2,2.564311E2,2.6618887E2,5.638034E2,2.0518018E2,5.014615E1,6.506757E1,5.5103935E1,4.9173236E2,3.6091708E2,4.450137E0,3.311121E2],"tree_param":{"num_deleted":"0","num_feature":"95","num_nodes":"107","size_leaf_vector":"1"}},{"base_weights":[-2.6875952E-2,-8.347711E-1,1.7341603E-2,-9.9172693E-1,-4.4025594E-1,1.1348436E-2,4.8058832E-1,-2.980275E-1,-8.0884546E-1,-7.5887537E-1,-2.030839E-1,-7.858754E-3,1.5728489E-1,-6.5219665E-1,5.2341634E-1,-8.947722E-1,-1.220608E-1,-5.4872197E-1,-8.5944945E-1,-7.790312E-1,-1.311609E-1,-3.2196373E-2,1.21292576E-1,3.999174E-2,2.564589E-1,-1.0216417E0,1.1290933E-1,6.3982636E-1,2.4606943E-1,-2.9304206E-1,-5.7718444E-1,-2.4134797E-1,3.35216E-1,-4.1352552E-1,-7.313787E-1,-7.022885E-1,-9.0178245E-1,-8.4236354E-1,3.9998943E-1,-5.476877E-2,-6.4909476E-1,9.109158E-2,-7.007154E-2,-1.292069E-1,1.7745948E-1,-5.9684545E-2,2.002249E-1,4.4070148E-1,1.48479E-1,-1.1785211E-1,-1.2977027E0,6.44518E-1,-4.1478905E-1,7.272046E-1,1.6234244E-1,2.0899524E-1,1.4605685E0,-2.3585542E-1,3.7010245E-2,-2.120332E-1,-8.379868E-2,-2.7786085E-1,-1.2084817E-1,-3.0924994E-2,-2.4730238E-1,-2.7347356E-1,-8.691384E-2,-2.718806E-1,-1.3388761E-2,-2.075366E-1,1.0258459E0,3.4401957E-2,-8.614209E-2,-2.1694918E-1,2.844409E-1,6.385325E-2,-2.1484543E-2,-5.7651263E-2,-1.0513267E-2,-1.0897525E-2,-1.2489378E-1,6.4069875E-2,-3.5274062E-2,-1.4186232E-2,-6.2091136E-1,1.3969055E-1,-1.3920372E-2,1.4710526E-1,-5.045719E-4,7.041105E-2,-1.0258894E-2,1.7213956E-1,-1.9140027E-1,-4.169876E-1,9.8299E-2,2.945106E-1,-1.4706653E-1,-2.0331241E-1,2.587181E-1,2.2343235E-1,-4.5623744E-1,9.4247565E-2,-1.1729201E-1,1.3371622E-3,1.3866924E-1,4.8728043E-1,-7.569166E-2],"categories":[],"categories_nodes":[],"categories_segments":[],"categories_sizes":[],"default_left":[0,0,0,0,0,0,0,0,0,0,0,0,0,0,0,0,0,0,0,0,0,0,0,0,0,0,0,0,0,0,0,0,0,0,0,0,0,0,0,0,0,0,0,0,0,0,0,0,0,0,0,0,0,0,0,0,0,0,0,0,0,0,0,0,0,0,0,0,0,0,0,0,0,0,0,0,0,0,0,0,0,0,0,0,0,0,0,0,0,0,0,0,0,0,0,0,0,0,0,0,0,0,0,0,0,0,0],"id":12,"left_children":[1,3,5,7,9,11,13,-1,15,17,19,21,23,25,27,29,31,33,35,37,39,41,43,45,47,49,51,53,55,-1,57,-1,-1,59,61,63,65,67,69,71,73,75,77,79,81,83,85,87,89,91,93,95,97,99,101,103,105,-1,-1,-1,-1,-1,-1,-1,-1,-1,-1,-1,-1,-1,-1,-1,-1,-1,-1,-1,-1,-1,-1,-1,-1,-1,-1,-1,-1,-1,-1,-1,-1,-1,-1,-1,-1,-1,-1,-1,-1,-1,-1,-1,-1,-1,-1,-1,-1,-1,-1],"loss_changes":[4.7182905E3,4.2396143E2,3.476618E2,7.192383E-1,1.4739047E2,3.4653342E2,7.7934845E1,0E0,2.869854E0,1.7130737E1,4.6320263E1,3.4340265E2,1.67249E2,1.6710876E1,4.961664E1,6.010361E-1,6.6266007E0,6.422516E0,3.102356E0,9.611565E0,3.943006E1,4.2926837E2,2.4375644E2,1.0524393E2,1.5493134E2,9.750359E0,5.883141E0,4.516089E1,2.0289953E1,0E0,1.7986875E0,0E0,0E0,6.0517006E0,6.9579926E0,8.959541E0,2.3670044E0,5.985199E0,2.5474487E1,3.4301388E1,1.5842632E1,4.2800024E2,3.0075726E2,8.460896E1,1.5077277E2,1.01138565E2,1.6543454E2,6.3220947E1,7.740247E1,4.1029587E0,4.9997025E0,4.4466553E0,4.162248E0,3.7355225E1,1.433314E1,2.3048275E1,4.1621304E0,0E0,0E0,0E0,0E0,0E0,0E0,0E0,0E0,0E0,0E0,0E0,0E0,0E0,0E0,0E0,0E0,0E0,0E0,0E0,0E0,0E0,0E0,0E0,0E0,0E0,0E0,0E0,0E0,0E0,0E0,0E0,0E0,0E0,0E0,0E0,0E0,0E0,0E0,0E0,0E0,0E0,0E0,0E0,0E0,0E0,0E0,0E0,0E0,0E0,0E0],"parents":[2147483647,0,0,1,1,2,2,3,3,4,4,5,5,6,6,8,8,9,9,10,10,11,11,12,12,13,13,14,14,15,15,16,16,17,17,18,18,19,19,20,20,21,21,22,22,23,23,24,24,25,25,26,26,27,27,28,28,30,30,33,33,34,34,35,35,36,36,37,37,38,38,39,39,40,40,41,41,42,42,43,43,44,44,45,45,46,46,47,47,48,48,49,49,50,50,51,51,52,52,53,53,54,54,55,55,56,56],"right_children":[2,4,6,8,10,12,14,-1,16,18,20,22,24,26,28,30,32,34,36,38,40,42,44,46,48,50,52,54,56,-1,58,-1,-1,60,62,64,66,68,70,72,74,76,78,80,82,84,86,88,90,92,94,96,98,100,102,104,106,-1,-1,-1,-1,-1,-1,-1,-1,-1,-1,-1,-1,-1,-1,-1,-1,-1,-1,-1,-1,-1,-1,-1,-1,-1,-1,-1,-1,-1,-1,-1,-1,-1,-1,-1,-1,-1,-1,-1,-1,-1,-1,-1,-1,-1,-1,-1,-1,-1,-1],"split_conditions":[1.385E1,1E0,1.64E2,3.27E1,4E0,1E0,4.477E3,-2.980275E-1,1E0,2E0,1E0,1E0,2E0,5.04E-1,8.55E1,1E0,4.0363808E1,1E0,1E0,1E0,1.5E1,5.7E1,1.1E1,1E0,1E0,1.214E1,6.8E2,1E0,2.32E2,-2.9304206E-1,1E2,-2.4134797E-1,3.35216E-1,1E0,2E0,2.715E3,8E0,5.4E1,1.5519899E4,1E0,1.86E2,1E0,-4.1611162E-1,1.72E2,2.9E2,1E0,1E0,3.1524E2,1.16E2,-5.01E2,1E0,3.468E3,1.1309E2,5E0,5.3724756E3,5E-1,5.1390645E3,-2.3585542E-1,3.7010245E-2,-2.120332E-1,-8.379868E-2,-2.7786085E-1,-1.2084817E-1,-3.0924994E-2,-2.4730238E-1,-2.7347356E-1,-8.691384E-2,-2.718806E-1,-1.3388761E-2,-2.075366E-1,1.0258459E0,3.4401957E-2,-8.614209E-2,-2.1694918E-1,2.844409E-1,6.385325E-2,-2.1484543E-2,-5.7651263E-2,-1.0513267E-2,-1.0897525E-2,-1.2489378E-1,6.4069875E-2,-3.5274062E-2,-1.4186232E-2,-6.2091136E-1,1.3969055E-1,-1.3920372E-2,1.4710526E-1,-5.045719E-4,7.041105E-2,-1.0258894E-2,1.7213956E-1,-1.9140027E-1,-4.169876E-1,9.8299E-2,2.945106E-1,-1.4706653E-1,-2.0331241E-1,2.587181E-1,2.2343235E-1,-4.5623744E-1,9.4247565E-2,-1.1729201E-1,1.3371622E-3,1.3866924E-1,4.8728043E-1,-7.569166E-2],"split_indices":[11,33,13,26,13,85,21,0,40,2,63,84,13,18,25,86,8,51,69,85,5,11,7,45,63,24,23,78,15,0,10,0,0,61,6,21,12,13,19,69,13,33,9,3,11,77,27,11,11,23,84,21,25,0,19,18,19,0,0,0,0,0,0,0,0,0,0,0,0,0,0,0,0,0,0,0,0,0,0,0,0,0,0,0,0,0,0,0,0,0,0,0,0,0,0,0,0,0,0,0,0,0,0,0,0,0,0],"split_type":[0,0,0,0,0,0,0,0,0,0,0,0,0,0,0,0,0,0,0,0,0,0,0,0,0,0,0,0,0,0,0,0,0,0,0,0,0,0,0,0,0,0,0,0,0,0,0,0,0,0,0,0,0,0,0,0,0,0,0,0,0,0,0,0,0,0,0,0,0,0,0,0,0,0,0,0,0,0,0,0,0,0,0,0,0,0,0,0,0,0,0,0,0,0,0,0,0,0,0,0,0,0,0,0,0,0,0],"sum_hessian":[1.3207795E5,6.8528184E3,1.2522514E5,4.9013345E3,1.9514841E3,1.23626766E5,1.5983737E3,4.8518525E3,4.9481487E1,8.318152E2,1.119669E3,1.0924907E5,1.4377693E4,5.7711002E1,1.5406626E3,4.3709904E1,5.7715845E0,2.7132578E2,5.6048944E2,1.2320806E2,9.964609E2,9.1926875E4,1.7322193E4,6.5877563E3,7.789937E3,3.8692394E1,1.901861E1,1.0842615E3,4.564011E2,3.3087517E1,1.0622387E1,3.9484935E0,1.8230911E0,1.5779503E2,1.1353075E2,1.22669464E2,4.3781995E2,1.1719818E2,6.0098844E0,8.693437E2,1.2711722E2,2.1603531E4,7.032334E4,3.1723757E3,1.4149818E4,4.0617131E3,2.5260432E3,2.877342E3,4.912595E3,9.387096E0,2.9305296E1,9.363923E0,9.654687E0,9.1609564E2,1.681659E2,4.440189E2,1.2382182E1,8.087387E0,2.5349994E0,4.8199917E1,1.09595116E2,7.012753E1,4.3403217E1,2.1070517E1,1.0159895E2,4.3044147E2,7.3784776E0,1.08380005E2,8.818177E0,4.980094E0,1.0297905E0,5.030404E2,3.6630328E2,1.2200659E2,5.1106296E0,1.2356739E4,9.246792E3,1.567577E4,5.4647574E4,2.3977908E3,7.7458496E2,1.26072295E4,1.5425887E3,4.0378328E3,2.3880424E1,1.2162599E3,1.3097833E3,2.5869016E3,2.9044046E2,3.3371458E3,1.5754495E3,3.985014E0,5.402083E0,2.7868322E1,1.4369737E0,7.3228345E0,2.0410888E0,8.395727E0,1.2589597E0,9.0965466E2,6.4409885E0,1.3229866E2,3.5867237E1,2.4618951E2,1.9782938E2,1.1349262E1,1.0329202E0],"tree_param":{"num_deleted":"0","num_feature":"95","num_nodes":"107","size_leaf_vector":"1"}},{"base_weights":[-2.0596439E-2,-7.8688055E-1,1.255826E-2,-9.853067E-1,-3.6636004E-1,-3.778601E-2,6.816356E-2,-9.875686E-1,-7.5880045E-1,-6.9598407E-1,-1.5777197E-1,-4.275007E-3,-1.4592604E-1,8.4741876E-2,-1.5462564E-1,-2.9642716E-1,-6.271784E-1,-2.8063038E-1,-2.9913834E-1,-4.6926194E-1,-8.154943E-1,-6.554929E-2,-5.976708E-1,-1.2935646E-1,2.9417595E-2,-1.2629736E-3,-2.6918006E-1,1.3755688E-1,1.3492278E-2,-4.6623147E-1,8.927002E-3,2.510024E-2,-2.5275412E-1,-2.6307854E-1,4.841712E-1,-1.599886E-1,-5.5423397E-1,-8.2342076E-1,2.5636765E-1,5.986144E-4,-6.7334306E-1,-6.496503E-1,3.671922E-1,1.607941E-1,-1.614024E-1,-3.841486E-2,9.297853E-2,-2.521635E-1,8.924625E-2,-5.0877845E-1,-1.9313183E-1,1.6112871E-1,-1.5640017E-1,1.5269275E-1,-7.401221E-2,-7.1648663E-1,-2.3893514E-1,1.2491E-1,-1.9853236E-1,7.862884E-1,-1.7733984E-1,-1.7146716E-1,1.449928E-1,-1.0860532E-1,-2.2309144E-1,-1.9487168E-1,-2.6198214E-1,-1.9046119E-1,3.6472192E-1,-1.127748E-1,3.0336076E-2,-2.2984195E-1,2.3297761E-1,-6.938485E-2,-2.3708442E-1,-1.4537427E-1,3.5069096E-1,-2.4327056E-3,1.3106357E-1,-9.961834E-2,-1.9620268E-2,1.5517712E-2,-3.410777E-2,5.4610554E-2,9.266674E-4,1.0471714E-1,-8.6720906E-2,2.1215135E-1,3.998569E-3,-1.8772493E-1,-9.773763E-2,-2.5467835E-2,-1.055794E-1,-7.48408E-2,5.3184908E-2,-7.502366E-2,3.9068647E-2,-9.071672E-2,6.1338782E-2,-3.2453798E-2,4.6537653E-2,-1.5785931E-1,-3.3371586E-1,-5.1442374E-2,-2.744142E-1,6.2052783E-2,-8.054064E-2,-1.8593562E-1,-1.1669339E-2],"categories":[],"categories_nodes":[],"categories_segments":[],"categories_sizes":[],"default_left":[0,0,0,0,0,0,0,0,0,0,0,0,0,0,0,0,0,0,0,0,0,0,0,0,0,0,0,0,0,0,0,0,0,0,0,0,0,0,0,0,0,0,0,0,0,0,0,0,0,0,0,0,0,0,0,0,0,0,0,0,0,0,0,0,0,0,0,0,0,0,0,0,0,0,0,0,0,0,0,0,0,0,0,0,0,0,0,0,0,0,0,0,0,0,0,0,0,0,0,0,0,0,0,0,0,0,0,0,0],"id":13,"left_children":[1,3,5,7,9,11,13,15,17,19,21,23,25,27,29,-1,31,-1,33,35,37,39,41,43,45,47,49,51,53,55,57,-1,-1,-1,59,61,63,65,67,69,71,73,75,77,79,81,83,85,87,89,91,93,95,97,99,101,103,105,107,-1,-1,-1,-1,-1,-1,-1,-1,-1,-1,-1,-1,-1,-1,-1,-1,-1,-1,-1,-1,-1,-1,-1,-1,-1,-1,-1,-1,-1,-1,-1,-1,-1,-1,-1,-1,-1,-1,-1,-1,-1,-1,-1,-1,-1,-1,-1,-1,-1,-1],"loss_changes":[3.2942512E3,4.4835083E2,3.4793484E2,1.1223145E0,1.1853162E2,2.3638644E2,2.1814374E2,5.9814453E-2,3.0031605E0,1.7729614E1,4.2886295E1,2.0987506E2,2.7515338E2,2.068483E2,2.0848106E2,0E0,1.2894628E0,0E0,6.1700687E0,6.0368156E0,3.918518E0,3.521285E1,9.429436E0,9.828772E1,1.6915503E2,1.6126265E2,1.517279E2,2.1876428E2,2.8505872E2,7.9921906E1,6.4597374E1,0E0,0E0,0E0,1.5411856E1,1.3949487E1,6.373001E0,3.1889954E0,4.1627555E0,2.9970865E1,1.2161518E1,1.0069298E1,7.400364E0,4.904087E1,1.5590483E2,1.2879153E2,1.6214091E2,4.187329E1,2.4480928E2,4.2752502E1,1.08712814E2,1.938924E2,6.2970726E1,2.128745E2,1.1251638E2,4.9865234E1,3.355009E1,5.5553802E1,6.4714355E1,0E0,0E0,0E0,0E0,0E0,0E0,0E0,0E0,0E0,0E0,0E0,0E0,0E0,0E0,0E0,0E0,0E0,0E0,0E0,0E0,0E0,0E0,0E0,0E0,0E0,0E0,0E0,0E0,0E0,0E0,0E0,0E0,0E0,0E0,0E0,0E0,0E0,0E0,0E0,0E0,0E0,0E0,0E0,0E0,0E0,0E0,0E0,0E0,0E0,0E0],"parents":[2147483647,0,0,1,1,2,2,3,3,4,4,5,5,6,6,7,7,8,8,9,9,10,10,11,11,12,12,13,13,14,14,16,16,18,18,19,19,20,20,21,21,22,22,23,23,24,24,25,25,26,26,27,27,28,28,29,29,30,30,34,34,35,35,36,36,37,37,38,38,39,39,40,40,41,41,42,42,43,43,44,44,45,45,46,46,47,47,48,48,49,49,50,50,51,51,52,52,53,53,54,54,55,55,56,56,57,57,58,58],"right_children":[2,4,6,8,10,12,14,16,18,20,22,24,26,28,30,-1,32,-1,34,36,38,40,42,44,46,48,50,52,54,56,58,-1,-1,-1,60,62,64,66,68,70,72,74,76,78,80,82,84,86,88,90,92,94,96,98,100,102,104,106,108,-1,-1,-1,-1,-1,-1,-1,-1,-1,-1,-1,-1,-1,-1,-1,-1,-1,-1,-1,-1,-1,-1,-1,-1,-1,-1,-1,-1,-1,-1,-1,-1,-1,-1,-1,-1,-1,-1,-1,-1,-1,-1,-1,-1,-1,-1,-1,-1,-1,-1],"split_conditions":[1.385E1,1E0,9.5E1,3.27E1,4E0,1.27E2,3.3754E2,8.129E3,4.0363808E1,2E0,1.2E1,1.1E1,3E1,1E0,1E0,-2.9642716E-1,1.2498445E3,-2.8063038E-1,1E0,1E0,8.129E3,1.5E1,2.7E1,2.188E1,1.4904E4,1E0,1.5E0,1E0,1E0,4.49E2,3.5E1,2.510024E-2,-2.5275412E-1,-2.6307854E-1,4E0,2E0,4.089168E3,1E0,5E0,1E0,1.86E2,3.841105E1,-3.542E-1,-3.6563152E-1,1E0,3.866753E1,7.077E1,3.805954E1,1E0,2.485E3,2.01E2,1E0,1E0,1E0,1E0,1.95E2,1E0,1E0,3.47E2,7.862884E-1,-1.7733984E-1,-1.7146716E-1,1.449928E-1,-1.0860532E-1,-2.2309144E-1,-1.9487168E-1,-2.6198214E-1,-1.9046119E-1,3.6472192E-1,-1.127748E-1,3.0336076E-2,-2.2984195E-1,2.3297761E-1,-6.938485E-2,-2.3708442E-1,-1.4537427E-1,3.5069096E-1,-2.4327056E-3,1.3106357E-1,-9.961834E-2,-1.9620268E-2,1.5517712E-2,-3.410777E-2,5.4610554E-2,9.266674E-4,1.0471714E-1,-8.6720906E-2,2.1215135E-1,3.998569E-3,-1.8772493E-1,-9.773763E-2,-2.5467835E-2,-1.055794E-1,-7.48408E-2,5.3184908E-2,-7.502366E-2,3.9068647E-2,-9.071672E-2,6.1338782E-2,-3.2453798E-2,4.6537653E-2,-1.5785931E-1,-3.3371586E-1,-5.1442374E-2,-2.744142E-1,6.2052783E-2,-8.054064E-2,-1.8593562E-1,-1.1669339E-2],"split_indices":[11,33,10,26,13,11,11,23,8,2,4,7,4,53,67,0,19,0,13,69,23,5,6,11,21,59,1,88,13,3,4,0,0,0,7,13,19,69,4,61,13,8,9,9,32,8,11,8,73,23,11,43,59,67,85,4,53,83,3,0,0,0,0,0,0,0,0,0,0,0,0,0,0,0,0,0,0,0,0,0,0,0,0,0,0,0,0,0,0,0,0,0,0,0,0,0,0,0,0,0,0,0,0,0,0,0,0,0,0],"split_type":[0,0,0,0,0,0,0,0,0,0,0,0,0,0,0,0,0,0,0,0,0,0,0,0,0,0,0,0,0,0,0,0,0,0,0,0,0,0,0,0,0,0,0,0,0,0,0,0,0,0,0,0,0,0,0,0,0,0,0,0,0,0,0,0,0,0,0,0,0,0,0,0,0,0,0,0,0,0,0,0,0,0,0,0,0,0,0,0,0,0,0,0,0,0,0,0,0,0,0,0,0,0,0,0,0,0,0,0,0],"sum_hessian":[1.2966332E5,5.3765146E3,1.24286805E5,3.6519626E3,1.7245521E3,6.5229363E4,5.9057445E4,3.6125278E3,3.943482E1,6.674574E2,1.0570947E3,4.979856E4,1.5430801E4,5.496777E4,4.0896733E3,3.6055645E3,6.9634805E0,2.7740097E1,1.169472E1,2.3208916E2,4.3536823E2,8.7483813E2,1.8225664E2,1.0566887E4,3.923167E4,7.099334E3,8.331467E3,3.1567143E4,2.3400627E4,1.4070552E3,2.6826182E3,1.7611578E0,5.2023225E0,6.6615014E0,5.033219E0,5.0643703E1,1.8144545E2,4.3240237E2,2.9658515E0,7.8987305E2,8.496509E1,1.7324994E2,9.006702E0,1.0505919E3,9.516295E3,1.897833E4,2.0253344E4,1.8815913E3,5.2177427E3,2.0059163E3,6.325551E3,2.9224166E4,2.3429763E3,9.03198E3,1.4368647E4,6.6868036E2,7.383749E2,1.720915E3,9.617031E2,1.2037578E0,3.829461E0,3.0952477E1,1.9691227E1,9.1499146E1,8.9946304E1,9.948967E1,3.329127E2,1.712871E0,1.2529806E0,1.6586568E2,6.240074E2,8.029759E1,4.667491E0,4.4251E1,1.2899895E2,4.559019E0,4.447683E0,6.524229E2,3.9816907E2,3.4251174E3,6.0911772E3,8.636704E3,1.0341625E4,1.0173297E4,1.0080048E4,1.08333046E2,1.7732582E3,5.6999634E2,4.6477466E3,1.2222142E3,7.83702E2,3.7625203E3,2.5630305E3,1.1057056E3,2.811846E4,1.7659425E3,5.770337E2,9.220326E2,8.109948E3,1.2504594E4,1.8640533E3,4.5318585E2,2.154945E2,6.724958E2,6.587909E1,1.4246617E3,2.962532E2,2.634949E2,6.9820825E2],"tree_param":{"num_deleted":"0","num_feature":"95","num_nodes":"109","size_leaf_vector":"1"}},{"base_weights":[-1.594034E-2,-7.3067206E-1,8.780384E-3,-9.776702E-1,-2.984332E-1,1.8496528E-2,-1.998138E-1,-9.806626E-1,-7.029794E-1,-6.2555635E-1,-1.218474E-1,7.503425E-3,1.9651142E-1,-3.562142E-2,-3.6140293E-1,-2.9440692E-1,-5.655454E-1,-8.26519E-1,2.1415567E-3,-3.922598E-1,-7.626205E-1,-5.196564E-1,-3.4627423E-2,1.6513305E-2,-2.0171322E-1,3.2598978E-1,1.0550538E-1,1.09325545E-2,-6.389337E-1,-4.140777E-1,6.996779E-2,3.9224938E-2,-2.4329899E-1,-2.8652623E-1,-4.2134255E-1,-5.6089693E-1,3.136721E-1,-2.426687E-1,-6.209922E-1,-5.84993E-1,-8.4766334E-1,-3.1024837E-1,-7.903714E-1,1.6814287E-1,-2.29706E-1,5.730705E-2,-3.6900155E-2,-3.222063E-1,-3.2953262E-2,3.5341635E-1,-2.723376E-1,3.9385594E-3,2.2502409E-1,7.28961E-1,-1.8121324E-2,9.2736445E-2,-7.576238E-1,-4.4144315E-1,4.1425514E-1,-3.450965E-1,3.3482543E-1,-2.4397904E-1,4.2193457E-2,-4.1497606E-3,-2.1497722E-1,7.81363E-2,-1.1275115E-1,-1.9600731E-1,2.617882E-1,-2.642404E-1,-5.951917E-2,4.4867747E-2,-2.5659707E-1,-1.1298062E-1,4.3356243E-1,-1.2821789E-1,-2.7036405E-1,-8.947766E-4,2.4533528E-1,-1.1390032E-2,-1.7735444E-1,-8.1392385E-2,2.2083793E-2,-4.102859E-2,8.00037E-3,6.988279E-2,-1.0763085E-1,8.496478E-2,-6.333046E-2,1.4659339E-1,7.831789E-2,7.832795E-2,-2.2393954E-1,-1.566857E-2,1.1285856E-1,-1.4301222E-2,1.0119636E-1,3.0289483E-1,-5.571028E-2,-5.3849712E-2,3.437273E-2,-1.3152485E-1,2.4635194E-1,-2.3809001E-1,2.6030195E-1,-1.22158855E-1,-2.7523932E-1,-2.4312109E-1,1.6198297E-1,-1.638087E-1,1.6028906E-1,2.7008468E-2,2.4628612E-1],"categories":[],"categories_nodes":[],"categories_segments":[],"categories_sizes":[],"default_left":[0,0,0,0,0,0,0,0,0,0,0,0,0,0,0,0,0,0,0,0,0,0,0,0,0,0,0,0,0,0,0,0,0,0,0,0,0,0,0,0,0,0,0,0,0,0,0,0,0,0,0,0,0,0,0,0,0,0,0,0,0,0,0,0,0,0,0,0,0,0,0,0,0,0,0,0,0,0,0,0,0,0,0,0,0,0,0,0,0,0,0,0,0,0,0,0,0,0,0,0,0,0,0,0,0,0,0,0,0,0,0,0,0],"id":14,"left_children":[1,3,5,7,9,11,13,15,17,19,21,23,25,27,29,-1,31,33,35,37,39,41,43,45,47,49,51,53,55,57,59,-1,-1,-1,61,63,-1,65,67,69,71,73,75,77,79,81,83,85,87,89,91,93,95,97,99,101,103,105,107,109,111,-1,-1,-1,-1,-1,-1,-1,-1,-1,-1,-1,-1,-1,-1,-1,-1,-1,-1,-1,-1,-1,-1,-1,-1,-1,-1,-1,-1,-1,-1,-1,-1,-1,-1,-1,-1,-1,-1,-1,-1,-1,-1,-1,-1,-1,-1,-1,-1,-1,-1,-1,-1],"loss_changes":[2.2639417E3,4.570381E2,2.5101433E2,1.5507812E0,8.998802E1,2.3158005E2,1.4623434E2,2.2045898E-1,2.867916E0,1.7171188E1,3.5157467E1,2.101017E2,8.106778E1,7.682855E1,6.315158E1,0E0,1.2774267E0,1.0561733E0,4.054209E0,6.8380966E0,4.686905E0,1.0085571E1,3.2971478E1,2.3283496E2,9.35639E1,4.6707886E1,4.908208E1,5.3005947E1,1.708731E1,5.630432E1,3.3443085E1,0E0,0E0,0E0,1.9940358E0,3.7207162E-1,0E0,8.481732E0,4.443344E0,1.2897358E1,1.8832245E0,1.2704591E1,2.786644E0,4.544983E1,2.94166E1,3.2465338E2,2.9373712E2,5.4578064E1,1.0809459E2,3.379785E1,3.1824284E1,4.574378E1,5.689823E1,2.555618E1,5.2323036E1,1.1286957E1,1.0562706E1,3.8705322E1,1.2704424E1,2.1245857E1,2.201013E1,0E0,0E0,0E0,0E0,0E0,0E0,0E0,0E0,0E0,0E0,0E0,0E0,0E0,0E0,0E0,0E0,0E0,0E0,0E0,0E0,0E0,0E0,0E0,0E0,0E0,0E0,0E0,0E0,0E0,0E0,0E0,0E0,0E0,0E0,0E0,0E0,0E0,0E0,0E0,0E0,0E0,0E0,0E0,0E0,0E0,0E0,0E0,0E0,0E0,0E0,0E0,0E0],"parents":[2147483647,0,0,1,1,2,2,3,3,4,4,5,5,6,6,7,7,8,8,9,9,10,10,11,11,12,12,13,13,14,14,16,16,17,17,18,18,19,19,20,20,21,21,22,22,23,23,24,24,25,25,26,26,27,27,28,28,29,29,30,30,34,34,35,35,37,37,38,38,39,39,40,40,41,41,42,42,43,43,44,44,45,45,46,46,47,47,48,48,49,49,50,50,51,51,52,52,53,53,54,54,55,55,56,56,57,57,58,58,59,59,60,60],"right_children":[2,4,6,8,10,12,14,16,18,20,22,24,26,28,30,-1,32,34,36,38,40,42,44,46,48,50,52,54,56,58,60,-1,-1,-1,62,64,-1,66,68,70,72,74,76,78,80,82,84,86,88,90,92,94,96,98,100,102,104,106,108,110,112,-1,-1,-1,-1,-1,-1,-1,-1,-1,-1,-1,-1,-1,-1,-1,-1,-1,-1,-1,-1,-1,-1,-1,-1,-1,-1,-1,-1,-1,-1,-1,-1,-1,-1,-1,-1,-1,-1,-1,-1,-1,-1,-1,-1,-1,-1,-1,-1,-1,-1,-1,-1],"split_conditions":[1.385E1,1E0,1.62E2,3.27E1,4E0,9.9E1,3.87069E1,8.129E3,1E0,2E0,7.5129E4,1E0,-3.5861E-1,1E0,2.743E3,-2.9440692E-1,1E1,1E0,4.03779E1,-1.75E2,1E0,2.498E4,1.1E1,1E0,-1.7506E-1,3.0105057E4,7.06E-1,1E0,4.1E1,1.86E2,1.4E1,3.9224938E-2,-2.4329899E-1,-2.8652623E-1,1.16E2,1.5E0,3.136721E-1,3.94533E1,2.53E-1,1E0,5.28E3,1.84E2,-1.69E3,3.948402E1,1E0,7E0,1E0,2.067E1,2E0,7.077E1,7.7E1,1E0,1.2E1,5E0,7.69E3,5.1E3,5.19E-1,2.3654996E4,1E0,4.8E1,1.7605E-1,-2.4397904E-1,4.2193457E-2,-4.1497606E-3,-2.1497722E-1,7.81363E-2,-1.1275115E-1,-1.9600731E-1,2.617882E-1,-2.642404E-1,-5.951917E-2,4.4867747E-2,-2.5659707E-1,-1.1298062E-1,4.3356243E-1,-1.2821789E-1,-2.7036405E-1,-8.947766E-4,2.4533528E-1,-1.1390032E-2,-1.7735444E-1,-8.1392385E-2,2.2083793E-2,-4.102859E-2,8.00037E-3,6.988279E-2,-1.0763085E-1,8.496478E-2,-6.333046E-2,1.4659339E-1,7.831789E-2,7.832795E-2,-2.2393954E-1,-1.566857E-2,1.1285856E-1,-1.4301222E-2,1.0119636E-1,3.0289483E-1,-5.571028E-2,-5.3849712E-2,3.437273E-2,